tree
version=v4
num_class=1
num_tree_per_iteration=1
label_index=0
max_feature_idx=9
objective=binary sigmoid:1
feature_names=hour day_of_week is_weekend Primary_Type Description Location_Description District Ward same_district suspect_Age
feature_infos=[0:23] [0:6] [0:1] -1:10:1:16:11:0:5:17:13:4:12:6:9:14:2:7:15:8 -1:107:54:135:129:114:160:151:100:110:127:4:0:82:156:152:140:109:22:108:171:25:64:42:122:23:153:118:154:99:36:106:57:88:29:79:138:168:61:80:147:68:96:117:14:15:142:165:120:67:113:148:146:111:133:158:69:137:65:47:49:98:19:77:123:132:41:136:150:161:7:9:26:46:48:87:125:37:71:155:167:27:35:11:13:51:56:62:93:97:105:121:144:159:50:72:92:102:116:128:163:3:17:18:24:63:73:89:104:141:43:70:81:94:134:145:149:164:170:172:2:5:20:28:30:32:45:55:58:66:78:83:90:95:101:119:126:139:157:1:6:8:10:12:21:31:38:39:44:52:53:59:60:74:75:76:85:86:91:103:115:124:130:131:162:166:169 -1:70:67:9:57:7:35:60:68:54:65:75:42:50:58:40:73:53:61:26:37:20:31:56:0:66:30:44:28:45:18:63:27:59:71:14:52:32:41:69:33:19:77:13:24:22:47:51:21:36:39:29:49:72:17:25:64:1:38:46:76:2:3:5:15:48:62:4:6:8:10:11:12:16:23:34:43:55 [1:14] [1:42] [0:1] [18:70]
tree_sizes=3515 3396 3493 3383 3427 3430 3595 3402 3625 3604 3393 3386 3801 3497 3469 3437 3459 3489 3557 3535 3563 3472 3523 3588 3565 3433 3420 3724 3379 3568 3609 3388 3496 3511 3623 3532 3623 3548 3732 3479 3483 3369 3451 3504 3530 3701 3427 3377 3466 3467 3452 3923 3503 3561 3637 3592 3485 3448 3535 3537 3496 3360 3384 3653 3497 3576 3541 3656 3554 3591 3425 3645 3561 3535 3464 3434 3373 3573 3561 3725 3506 3821 3335 3520 3682 3583 3732 3582 3473 3574 3495 3660 3509 3643 3496 3489 3565 3552 3405 3695 3582 3435 3492 3670 3421 3498 3697 3543 3421 3476 3433 3397 3808 3620 3582 3543 3535 3552 3410 3517 3730 3489 3418 3476 3588 3576 3555 3651 3625 3579 3471 3408 3398 3450 3544 3527 3599 3830 3583 3591 3505 3476 3446 3564 3558 3540 3518 3516 3859 3436 3522 3539 3542 3599 3414 3418 3746 3536 3446 3474 3542 3598 3893 3607 3513 3450 3491 3543 3559 3549 3442 3491 3797 3410 3870 3551 3530 3377 3571 3406 3617 3541 3516 3779 3559 3469 3481 3638 3514 3518 3638 3706 3542 3824 3534 3543 3568 3599 3429 3592 3512 3424 3633 3922 3554 3574 3525 3892 3501 3455 3462 3835 3648 3588 3614 3599 3418 3582 3529 3512 3888 3615 3583 3427 3486 3386 3477 3546 3767 3455 3406 3531 3903 3435 3534 3746 3530 3534 3564 3571 3564 3770 3523 3526 3582 3681 3507 3611 3788 3844 3539 3509 3514 3519 3576 3531 3602 3484 3429 3601 3557 3850 3485 3887 3605 3621 3550 3524 3642 3383 3552 3486 3640 3752 3651 3546 3530 3572 3869 3753 3551 3849 3409 3486 3844 3810 3474 3470 3520 3798 3522 3380 3781 3507 3494 3659 3404 3556 3596 3704 3859 3470 3565 3417 3537 3576 3572 3572 3419 3441 3650 3628 3551 3709 3529 3484 3547 3615 3581 3852 3452 3582 3536 3533 3462 3418 3619 3563 3581 3412 3524 3457 3567 3842 3402 3414 3441 3564 3592 3876 3435 3612 3800 3528 3654 3441 3528 3395 3497 3577 3609 3598 3532 3596 3564 3570 3620 3570 3588 3448 3508 3726 3591 3392 3493 3589 3569 3448 3690 3449 3592 3541 3633 3528 3423 3543 3632 3514 3591 3440 3455 3423 3502 3683 3862 3631 3523 3572 3889 3544 3597 3787 3661 3438 3583 3678 3521 3610 3437 3860 3670 3654 3726 3459 3572 3415 3811 3441 3427 3586 3524 3464 3844 3678 3638 3780 3882 3527 3581 3484 3576 3573 3752 3563 3564 3631 3632 3537 3612 3641 3575 3437 3514 3429 3626 3508 3440 3507 3763 3697 3615 3818 3436 3612 3826 3741 3611 3645 3479 3733 3670 3598 3690 3870 3657 3520 3543 3663 3410 3526 3441 3424 3576 3438 3581 3622 3497 3662 3800 3515 3800 3535 3476 3604 3664 3665 3594 3700 3728 3466 3529 3469 3568 3605 3545 3607 3574 3659 3698 3828 3415 3565 3626 3398 3433 3583 3608 3733 3605 3703 3440 3718 3583 3575 3847 3420 3599 3659 3598 3397 3661 3431 3765 3508 3675 3599 3567 3636 3569 3551 3600 3643 3762 3723 3592 3763 3504 3597 3663 3875 3604 3449 3423 3612 3608 3650 3539 3694 3676 3454 3413 3807 3582 3622 3614 3549 3431 3791 3611 3407 3644 3419 3582 3545 3542 3570 3637 3491 3602 3867 3675 3578 3497 3563 3523 3604 3479 3833 3595 3837 3901 3502 3547 3432 3504 3627 3635 3610 3606 3781 3576 3684 3566 3509 3593 3522 3557 3568 3766 3572 3655 3510 3444 3666 3634 3720 3401 3640 3825 3418 3445 3605 3668 3609 3552 3584 3897 3435 3609 3667 3639 3642 3630 3662 3775 3517 3676 3664 3650 3462 3618 3683 3411 3538 3648 3562 3619 3513 3505 3724 3697 3529 3831 3640 3655 3775 3653 3693 3568 3459 3659 3421 3609 3602 3863 3586 3696 3581 3732 3607 3657 3404 3712 3451 3454 3436 3787 3545 3541 3578 3459 3727 3738 3527 3692 3680 3384 3675 3583 3845 3642 3457 3610 3627 3786 3419 3386 3602 3656 3827 3741 3614 3711 3585 3621 3536 3630 3658 3541 3411 3623 3872 3667 3450 3661 3659 3609 3432 3706 3735 3905 3564 3717 3782 3588 3581 3551 3677 3561 3526 3551 3543 3855 3479 3700 3413 3518 3473 3716 3605 3613 3652 3617 3485 3659 3395 3418 3414 3601 3594 3602 3564 3630 3424 3605 3545 3615 3452 3563 3534 3811 3525 3529 3512 3525 3652 3626 3609 3837 3549 3640 3626 3599 3740 3432 3640 3533 3634 3873 3633 3666 3545 3676 3769 3778 3592 3785 3432 3596 3668 3622 3653 3658 3622 3794 3674 3599 3733 3709 3437 3657 3577 3577 3677 3687 3614 3534 3561 3535 3810 3759 3640 3576 3459 3567 3577 3649 3456 3469 3607 3550 3829 3569 3560 3551 3782 3471 3779 3714 3590 3424 3764 3582 3588 3645 3698 3461 3623 3782 3670 3527 3597 3578 3608 3866 3615 3538 3601 3698 3425 3589 3605 3642 3645 3640 3849 3551 3591 3580 3553 3619 3544 3563 3794 3690 3431 3572 3403 3633 3435 3438 3693 3682 3662 3432 3638 3661 3690 3782 3631 3461 3800 3495 3858 3637 3618 3608 3658 3395 3444 3709 3632 3624 3420 3500 3730 3424 3420 3570 3628 3705 3636 3421 3550 3771 3495 3739 3645 3663 3465 3547 3621 3461 3708 3644 3447 3813 3600 3577 3548 3646 3457 3566 3632 3522 3913 3544 3454 3562 3440 3748 3755 3710 3753 3555 3768 3610 3638 3655 3675 3517 3692 3402 3422 3533 3428 3744 3471 3427 3689 3505 3573 3462 3658 3686 3518 3637 3682 3734 3447 3598 3614 3595 3548 3475 3526 3735 3786 3441 3658 3583 3673 3711 3408 3652 3678 3486 3645 3623 3679 3586 3465 3608 3770 3787 3646 3681 3723 3617 3545 3838 3560 3629 3714 3579 3464 3535 3766 3662 3716 3621 3790 3567 3497 3596 3681 3559 3446 3646 3734 3611 3621 3590 3391 3775 3675 3576 3694

Tree=0
num_leaves=31
num_cat=7
split_feature=8 6 4 6 6 6 6 6 4 6 6 6 6 4 4 6 6 6 7 6 6 6 5 4 7 6 6 4 0 6
split_gain=31.0523 279.801 271.758 233.556 89.8686 158.142 66.8607 65.9478 46.8526 45.9347 131.458 37.9521 74.5165 40.0203 36.7139 26.1577 65.794 33.4959 14.3452 10.63 11.7602 8.57645 8.56647 8.32975 9.98461 8.69157 8.14503 7.6384 6.95911 6.81678
threshold=1.0000000180025095e-35 2.5000000000000004 0 1.5000000000000002 8.5000000000000018 7.5000000000000009 3.5000000000000004 13.000000000000002 1 5.5000000000000009 4.5000000000000009 2.5000000000000004 1.5000000000000002 2 3 5.5000000000000009 6.5000000000000009 4.5000000000000009 3.5000000000000004 8.5000000000000018 6.5000000000000009 13.000000000000002 4 5 33.000000000000007 10.500000000000002 11.500000000000002 6 18.500000000000004 5.5000000000000009
decision_type=2 2 9 2 2 2 2 2 9 2 2 2 2 9 9 2 2 2 2 2 2 2 9 9 2 2 2 9 2 2
left_child=11 3 4 -2 5 6 -3 -6 -4 10 -10 12 -1 -14 19 17 -17 -8 -5 20 22 -21 -13 24 -16 -26 -11 -22 -18 -24
right_child=1 2 8 18 7 -7 15 -9 9 26 -12 14 13 -15 23 16 28 -19 -20 21 27 -23 29 -25 25 -27 -28 -29 -30 -31
leaf_value=-2.3008935087137328 -2.3568081072012044 -2.3563786178543222 -2.3537600598590149 -2.0965153753548624 -2.3476189044526374 -2.0229554899159599 -2.2304934179841669 -2.156389234608179 -2.3325156694060882 -2.3416619678225823 -2.12889756809329 -2.2987541327819963 -2.2990327524848637 -2.3506149728554009 -2.3034384785288453 -2.3562900700115197 -2.2030684017769473 -2.1115382027132616 -2.1595424164216057 -2.3020879693789067 -2.332381885917906 -2.3260108576259495 -2.3195688266812353 -2.2988071468267841 -2.3500291989327207 -2.2921880986452359 -2.2868203936969214 -2.3112852335404011 -2.111072419093369 -2.3023586509012741
leaf_weight=306.29713873565197 14.628870360553263 9.0913883596658689 138.93294393271208 22.315225973725319 21.158140182495121 10.661719076335428 12.893241673707962 5.6201309859752646 22.315225973725319 47.853762365877628 12.149400807917116 126.03970225900412 54.87892609834671 157.94221050292253 789.6284035295248 8.4301964789628983 7.0251637324690819 11.488208927214146 18.843968600034714 374.23460447788239 117.60950578004122 41.489790514111519 201.74617259949446 2867.4238886386156 21.323438152670864 9.0913883596658689 7.6863556131720534 111.24553392827511 3.5539063587784767 79.673621624708176
leaf_count=3706 177 110 1681 270 256 129 156 68 270 579 147 1525 664 1911 9554 102 85 139 228 4528 1423 502 2441 34694 258 110 93 1346 43 964
internal_value=-2.30284 -2.28894 -2.30701 -2.18574 -2.23754 -2.19781 -2.2339 -2.3069 -2.33572 -2.30547 -2.26059 -2.30384 -2.31667 -2.33939 -2.30243 -2.20805 -2.25283 -2.17369 -2.12483 -2.31062 -2.31477 -2.30447 -2.30965 -2.30008 -2.30451 -2.3326 -2.33397 -2.32384 -2.17019 -2.31426
internal_weight=5633.27 374.648 318.86 55.7881 89.9221 63.1438 52.4821 26.7783 228.938 90.0047 34.4646 5258.62 519.118 212.821 4739.51 43.3907 19.0093 24.3815 41.1592 1052.04 636.315 415.724 407.459 3687.47 820.043 30.4148 55.5401 228.855 10.5791 281.42
internal_count=68159 4533 3858 675 1088 764 635 324 2770 1089 417 63626 6281 2575 57345 525 230 295 498 12729 7699 5030 4930 44616 9922 368 672 2769 128 3405
cat_boundaries=0 6 12 18 24 27 33 39
cat_threshold=46137344 1024 0 67108864 378011776 33 1 33554448 17039361 2151971856 4098 2304 536870913 1056 16 13 1064962 2177 571211908 314368 2816 67109124 48775313 2107 604521089 88356100 16 1233272856 1179320864 131088 50332195 2550137120 128 570425344 1024 0 67108864 44040192 1
is_linear=0
shrinkage=1


Tree=1
num_leaves=31
num_cat=4
split_feature=9 9 6 9 3 8 6 9 3 9 7 6 3 9 9 9 6 6 8 9 6 6 9 3 6 6 9 6 8 6
split_gain=349.575 1598.6 2438.52 1775.67 567.654 464.992 294.8 259.971 706.533 965.935 725.959 604.934 368.286 607.05 350.035 332.65 472.925 544.022 649.78 447.121 417.481 272.428 225.376 224.109 215.539 196.673 191.458 330.227 163.703 151.956
threshold=29.500000000000004 31.500000000000004 10.500000000000002 30.500000000000004 0 1.0000000180025095e-35 10.500000000000002 58.500000000000007 1 59.500000000000007 21.500000000000004 3.5000000000000004 2 34.500000000000007 33.500000000000007 65.500000000000014 7.5000000000000009 5.5000000000000009 1.0000000180025095e-35 69.500000000000014 8.5000000000000018 9.5000000000000018 62.500000000000007 3 11.500000000000002 2.5000000000000004 33.500000000000007 11.500000000000002 1.0000000180025095e-35 13.000000000000002
decision_type=2 2 2 2 9 2 2 2 9 2 2 2 9 2 2 2 2 2 2 2 2 2 2 9 2 2 2 2 2 2
left_child=4 2 5 -4 -1 -2 7 12 9 10 11 -9 13 14 -3 20 17 18 -17 28 -11 22 -22 26 -5 -20 27 -8 -19 -29
right_child=1 6 3 24 -6 -7 23 8 -10 15 -12 -13 -14 -15 -16 16 -18 19 25 -21 21 -23 -24 -25 -26 -27 -28 29 -30 -31
leaf_value=-0.05078986627704038 -0.042704285981113928 0.043567275397337513 -0.054572382348895644 0.47148388523538487 0.020673438203422961 0.29067939937263421 -0.054619717313442964 0.31756807277391319 -0.0092364743861520892 -0.045247773699066719 0.41025218911070954 -0.040704879658861014 -0.018423843911489959 0.004535876949523808 0.20704962024838622 -0.054758796700338785 -0.054748094893604875 0.31061335963692016 0.4608632264323152 -0.054088274258505577 0.29188226966751918 -0.0054357058445731994 -0.053264084734372691 0.0060379092881823523 0.17085330501026558 -0.050400095288207485 -0.04974141308751915 0.29941217115421453 -0.051635283487057294 -0.052316055823775402
leaf_weight=741.46141674369574 110.66276190429926 67.889332138001919 23.452571272850037 67.137201428413391 436.58004797250032 11.44870764762163 26.274966336786747 19.896217666566372 590.14350882917643 149.82125818729401 33.21534775942564 28.584731824696064 1389.5218561142683 630.49668706208467 63.439246408641338 47.273456394672394 41.247628077864647 54.874724686145782 9.3812321573495847 11.190611310303209 22.962779082357887 24.319752097129822 5.8856137171387664 396.21874187141657 6.7653704285621634 2.3021267578005782 600.29630392789841 14.008557923138143 3.2535622417926779 3.8612267673015586
leaf_count=8983 1342 824 283 810 5288 125 317 240 7163 1817 401 345 16797 7624 768 574 499 662 98 135 277 294 71 4796 82 29 7258 169 41 47
internal_value=-0.000335325 0.00606789 0.137616 0.324138 -0.0245576 -0.0111943 -0.000748916 0.00677672 0.0272442 0.0732366 0.230454 0.106576 -0.00315751 0.0245985 0.122674 0.0406566 0.0923381 0.139679 0.0278439 0.234548 -0.00250404 0.117707 0.221352 -0.0238622 0.444298 0.360125 -0.0416981 0.0580056 0.290198 0.223266
internal_weight=5633.87 4455.83 219.467 97.3551 1178.04 122.111 4236.36 3195.7 1044.35 454.209 81.6963 48.4809 2151.35 761.825 131.329 372.513 169.523 128.276 58.9568 69.3189 202.989 53.1681 28.8484 1040.66 73.9026 11.6834 644.441 44.1448 58.1283 17.8698
internal_count=68159 53888 2642 1175 14271 1467 51246 38659 12646 5483 986 585 26013 9216 1592 4497 2038 1539 701 838 2459 642 348 12587 892 127 7791 533 703 216
cat_boundaries=0 1 2 3 4
cat_threshold=7826 66560 6802 66592
is_linear=0
shrinkage=0.05


Tree=2
num_leaves=31
num_cat=4
split_feature=8 3 6 6 6 6 6 7 6 6 6 6 6 6 6 3 4 6 6 4 7 6 1 0 1 6 6 6 6 6
split_gain=25.0642 252.134 205.234 96.3743 98.7101 63.5416 54.8228 39.9744 63.7303 62.1644 57.8239 54.4816 49.7771 35.1349 67.3316 44.8963 32.5513 15.8934 15.8619 12.9541 9.87494 9.82434 8.3581 8.23073 18.2909 7.10049 8.66654 6.72221 5.93751 5.69807
threshold=1.0000000180025095e-35 0 2.5000000000000004 8.5000000000000018 7.5000000000000009 1.5000000000000002 11.500000000000002 4.5000000000000009 1.5000000000000002 3.5000000000000004 5.5000000000000009 4.5000000000000009 6.5000000000000009 2.5000000000000004 1.5000000000000002 1 2 2.5000000000000004 1.5000000000000002 3 33.000000000000007 10.500000000000002 1.0000000180025095e-35 11.500000000000002 1.0000000180025095e-35 8.5000000000000018 6.5000000000000009 13.000000000000002 4.5000000000000009 13.000000000000002
decision_type=2 9 2 2 2 2 2 2 2 2 2 2 2 2 2 9 9 2 2 9 2 2 2 2 2 2 2 2 2 2
left_child=13 3 5 4 7 -3 -5 8 -2 17 11 23 -12 14 -1 -16 25 18 -9 20 -18 -22 -6 -11 -25 26 28 -27 -15 -8
right_child=1 2 -4 6 22 -7 29 9 -10 10 12 -13 -14 16 15 -17 19 -19 -20 -21 21 -23 -24 24 -26 27 -28 -29 -30 -31
leaf_value=0.00092123132107953362 -0.052423363387952684 -0.053195335507706214 -0.053369372624561456 -0.054379669325254787 0.090060901931987805 0.11173372575870306 0.027105623496211553 -0.049981074308150568 0.15421696360555548 0.001789105378716549 -0.054055382061320281 0.14592474405593017 0.071488858825078716 -0.020866370824582106 -0.049756507343593395 0.0026983116175438716 -0.0019621848898472936 -0.054281753291890701 0.12994511920404145 0.0031504563777718314 -0.04275544850931895 0.0030989431952368491 0.2031212145970836 0.21007343511993826 0.041128964144785334 -0.0024560823115507692 -0.029291694059413693 -0.04141131259575806 -0.0022931934629180158 0.088491901567932976
leaf_weight=309.48803821206093 4.481997266411784 7.2065431475639334 159.28356562554836 27.068495407700539 2.2985322624444988 28.839560195803642 7.2227772623300561 2.1194556802511242 20.124634392559528 8.6977645829319972 14.968278594315054 27.283987082540989 16.457537390291691 81.007867261767387 142.44861330837011 62.726430118083954 1262.6153491362929 16.430386863648891 2.5954289138317108 2975.7756745815277 29.782080486416817 18.838865958154202 14.359352461993693 1.7867822125554074 12.360767036676405 168.48797880113125 103.94228661060333 11.792977489531038 93.169231712818146 8.9263796359300613
leaf_count=3706 57 93 2038 341 24 263 89 27 212 104 189 264 189 997 1811 764 15336 203 28 35802 372 228 147 21 145 2038 1288 145 1139 99
internal_value=-0.000483228 0.0118712 -0.0275586 0.0517452 0.0741581 0.0785659 -0.0108539 0.0590279 0.116316 0.0451534 0.0649654 0.0982614 0.0115511 -0.0013828 -0.01379 -0.0359945 -3.58648e-05 -0.0309702 0.0486672 0.0013277 -0.00279763 -0.024916 0.18845 0.0407317 0.0641416 -0.0125517 -0.0178416 -0.00505358 -0.0109671 0.0616801
internal_weight=5642.59 382.512 195.33 187.183 143.965 36.0461 43.2177 127.307 24.6066 102.7 81.5551 50.1293 31.4258 5260.08 514.663 205.175 4745.41 21.1453 4.71488 4287.01 1311.24 48.6209 16.6579 22.8453 14.1475 458.4 278.119 180.281 174.177 16.1492
internal_count=68159 4533 2394 2139 1610 356 529 1439 269 1170 912 534 378 63626 6281 2575 57345 258 55 51738 15936 600 171 270 166 5607 3424 2183 2136 188
cat_boundaries=0 1 2 8 14
cat_threshold=131699 17458 786564 52224 2048 67109124 40370192 2107 1795309592 105316864 131856 16777248 2558541985 128
is_linear=0
shrinkage=0.05


Tree=3
num_leaves=31
num_cat=5
split_feature=9 9 6 9 3 6 9 3 9 9 6 9 6 6 3 9 7 6 9 3 6 9 6 3 9 6 9 6 6 6
split_gain=315.228 1229.96 1488.71 904.324 541.063 268.353 224.085 584.151 683.3 358.823 411.245 416.502 344.447 330.515 330.247 482.233 324.926 251.26 228.165 213.455 178.935 175.553 245.876 155.025 145.126 127.776 521.865 109.893 138.613 324.951
threshold=29.500000000000004 31.500000000000004 10.500000000000002 30.500000000000004 0 10.500000000000002 58.500000000000007 1 59.500000000000007 65.500000000000014 7.5000000000000009 69.500000000000014 8.5000000000000018 5.5000000000000009 2 34.500000000000007 21.500000000000004 3.5000000000000004 33.500000000000007 3 9.5000000000000018 33.500000000000007 11.500000000000002 4 62.500000000000007 1.5000000000000002 69.500000000000014 2.5000000000000004 3.5000000000000004 6.5000000000000009
decision_type=2 2 2 2 9 2 2 9 2 2 2 2 2 2 9 2 2 2 2 9 2 2 2 9 2 2 2 2 2 2
left_child=4 2 23 -4 -1 6 14 8 16 12 11 13 -10 -11 15 18 17 -8 -3 21 24 22 -7 -2 -14 26 -9 -20 -29 -30
right_child=1 5 3 -5 -6 19 7 25 9 10 -12 -13 20 -15 -16 -17 -18 -19 27 -21 -22 -23 -24 -25 -26 -27 -28 28 29 -31
leaf_value=-0.051972175287353532 0.060525050573185413 0.040298697594266145 -0.054300403177855096 0.29491828071518456 0.017263509803020893 -0.054350632615919298 0.21046522270216791 -0.040361158108438044 -0.046228849620731691 0.06035970110765241 -0.054516488175550916 -0.054371039654573294 0.20783074601474516 0.2178843789034092 -0.017792667969499572 0.0042336567387481821 0.27205236514950254 0.0097391677777116763 -0.053938071125558262 0.0057538477820711087 -0.008912498398537758 -0.049283998828963116 0.17541128395008282 -0.048768933162107155 -0.053177441220823823 -0.019968622826012368 0.43700993813663475 0.33245938454643359 -0.055393030190603799 0.21823993071618203
leaf_weight=678.89440923184156 40.635910674929619 70.068598635494709 22.463130265474319 104.62896572053432 474.40013657510281 25.18176095187664 27.779624819755554 21.21615915000439 170.63876719772816 56.953201219439507 44.433013416826725 29.322875484824181 30.147833786904812 80.783403195440769 1368.5954028666019 633.21820152550936 46.934659570455551 35.51716860383749 5.2066277116537085 397.92609911412001 26.177372753620148 576.40720251202583 21.469256639480591 81.271459825336933 6.3854298889636985 486.41091323643923 7.7265799194574347 12.640080608427523 14.470986396074293 42.532285138964653
leaf_count=8594 458 824 283 892 5677 317 267 260 2147 640 561 372 291 795 16797 7624 415 441 55 4796 318 7258 216 1009 80 5965 94 130 149 434
internal_value=-0.000475149 0.00551659 0.113493 0.233161 -0.0237901 -0.000828582 0.00625803 0.0249449 0.0599182 0.0333498 0.0805057 0.116459 -0.00938406 0.152876 -0.0030582 0.0227853 0.172394 0.0981055 0.105324 -0.0231621 0.0907068 -0.041069 0.0514301 -0.0113132 0.162054 -0.0136168 0.087972 0.165994 0.182562 0.148712
internal_weight=5640.44 4487.14 248.999 127.092 1153.29 4238.14 3217.16 1070.43 555.073 444.842 211.492 167.059 233.349 137.737 2146.73 778.137 110.231 63.2968 144.919 1020.98 62.7106 623.058 46.651 121.907 36.5333 515.354 28.9427 74.85 69.6434 57.0033
internal_count=68159 53888 2642 1175 14271 51246 38659 12646 6327 5204 2368 1807 2836 1435 26013 9216 1123 708 1592 12587 689 7791 533 1467 371 6319 354 768 713 583
cat_boundaries=0 1 2 3 4 5
cat_threshold=7810 66592 6802 66592 131138
is_linear=0
shrinkage=0.05


Tree=4
num_leaves=31
num_cat=7
split_feature=8 3 6 6 6 3 6 6 6 3 7 6 6 6 6 6 3 6 6 5 6 6 6 0 1 6 5 6 6 3
split_gain=23.7081 218.968 182.634 78.8574 68.7746 53.3704 49.6496 34.2515 58.9416 43.8383 30.5863 52.2137 48.4772 44.584 44.614 36.9187 24.8075 14.7192 12.5773 9.31283 10.833 16.2952 9.89224 6.67001 12.7157 6.59389 6.26661 5.59615 12.6339 8.52611
threshold=1.0000000180025095e-35 0 2.5000000000000004 8.5000000000000018 7.5000000000000009 1 11.500000000000002 2.5000000000000004 1.5000000000000002 2 4.5000000000000009 3.5000000000000004 1.5000000000000002 5.5000000000000009 6.5000000000000009 4.5000000000000009 3 2.5000000000000004 1.5000000000000002 4 8.5000000000000018 6.5000000000000009 13.000000000000002 11.500000000000002 1.0000000180025095e-35 5.5000000000000009 5 5.5000000000000009 4.5000000000000009 6
decision_type=2 9 2 2 2 9 2 2 2 9 2 2 2 2 2 2 9 2 2 9 2 2 2 2 2 2 9 2 2 9
left_child=7 3 5 4 10 -3 -5 8 -1 -10 12 17 -2 15 -15 23 19 18 -12 -9 21 25 -22 -13 -25 -21 27 28 -18 -30
right_child=1 2 -4 6 -6 -7 -8 16 9 -11 11 13 -14 14 -16 -17 26 -19 -20 20 22 -23 -24 24 -26 -27 -28 -29 29 -31
leaf_value=-0.00025786995437318479 -0.052002136577953544 0.089892261596982853 -0.052981821544519019 -0.054093252794355728 0.15487702521046018 -0.029634411257372879 0.055781576618370743 0.0018576874742219425 -0.049267030149881152 0.0029125290781194984 -0.049387692840387444 0.0024806733511434295 0.13042778556134257 -0.053793836285315914 0.065108171823648961 0.12208110017104078 0.0012183070162535411 -0.053958779967278575 0.10953676584585366 -0.013019490984261138 0.00059149509762692644 -0.02724919758009392 -0.02859844018780024 0.17002588930667645 0.038314001753957612 0.0037858912934642139 0.0024941167667378566 -0.00042189090750283879 -0.041556617209523375 0.00096870896689044746
leaf_weight=314.77432940900326 4.238274514675143 26.747240513563156 149.9810835570097 25.736932963132858 19.199022121727467 11.726932413876055 16.956128738820553 211.73507045209408 135.21208669245243 62.458277486264706 1.9939924031496055 8.60165983438492 22.58895119279623 14.320793442428114 17.284067898988724 30.720703467726707 73.675136804580688 15.574865192174911 2.9115634858608246 172.3401026725769 255.33367131650448 171.01011743396521 32.606186538934708 2.1107071861624709 12.710086889564989 87.58697946369648 3288.1138897538185 391.67941364645958 32.056660287082195 24.804284945130348
leaf_count=3706 57 220 2038 341 171 136 188 2598 1811 764 27 104 212 189 189 264 897 203 28 2147 3107 2153 402 21 145 1071 39543 4718 402 307
internal_value=-0.000558145 0.0114419 -0.0266229 0.0472042 0.0664587 0.0689698 -0.0103098 -0.00143508 -0.0137139 -0.0351052 0.0535563 0.0413591 0.101335 0.0584986 0.0110739 0.0860181 -0.000106566 -0.0300935 0.0442427 -0.00738045 -0.0100963 -0.0152556 -0.00270538 0.0381877 0.0584207 -0.00733812 0.00168375 -0.00335982 -0.012387 -0.0300746
internal_weight=5636.79 383.403 188.455 194.948 152.255 38.4742 42.6931 5253.39 512.445 197.67 133.056 106.228 26.8272 85.748 31.6049 54.1432 4740.94 20.4804 4.90556 930.612 718.877 430.937 287.94 23.4225 14.8208 259.927 3810.33 522.215 130.536 56.8609
internal_count=68159 4533 2394 2139 1610 356 529 63626 6281 2575 1439 1170 269 912 378 534 57345 258 55 11478 8880 5371 3509 270 166 3218 45867 6324 1606 709
cat_boundaries=0 1 2 3 4 6 9 10
cat_threshold=131699 1024 17458 148065 3558097409 219161412 960806912 33558528 565 2
is_linear=0
shrinkage=0.05


Tree=5
num_leaves=31
num_cat=6
split_feature=9 9 6 9 3 8 6 4 9 3 9 3 9 9 6 6 9 3 7 9 6 6 8 6 9 6 9 9 9 3
split_gain=307.494 1033.11 1060.78 580.274 508.142 313.476 241.189 251.201 189.539 465.886 436.452 306.691 357.924 253.973 354.87 326.432 301.039 257.04 226.45 174.576 157.145 145.12 221.78 143.638 112.723 171.033 112.701 111.794 567.047 176.299
threshold=29.500000000000004 31.500000000000004 10.500000000000002 30.500000000000004 0 1.0000000180025095e-35 10.500000000000002 1 58.500000000000007 2 59.500000000000007 3 34.500000000000007 65.500000000000014 8.5000000000000018 7.5000000000000009 69.500000000000014 4 21.500000000000004 33.500000000000007 9.5000000000000018 5.5000000000000009 1.0000000180025095e-35 3.5000000000000004 33.500000000000007 11.500000000000002 62.500000000000007 49.500000000000007 48.500000000000007 5
decision_type=2 2 2 2 9 2 2 9 2 9 2 9 2 2 2 2 2 9 2 2 2 2 2 2 2 2 2 2 2 9
left_child=4 2 5 -4 -1 -2 8 24 11 10 18 -3 19 14 -12 16 17 21 23 -13 26 22 -15 -10 25 -8 -16 28 29 -9
right_child=1 6 3 -5 -6 -7 7 27 9 -11 13 12 -14 15 20 -17 -18 -19 -20 -21 -22 -23 -24 -25 -26 -27 -28 -29 -30 -31
leaf_value=-0.05013481987206473 -0.04182352194975221 -0.01701710487492156 -0.054038310015540506 0.22748952937502859 0.017680765352786048 0.18718778069225109 -0.054120990149073678 -0.039182733704308387 0.15861647631672501 -0.01180265190672385 -0.045764099364818789 0.031990048781648378 0.0055029663457240047 0.00069930849665147802 0.18295772264396484 -0.054253409273576775 -0.054071172072006096 -0.038911554303879013 0.21525332884770099 0.13732236163071274 -0.0044539682847324459 0.19794158338438145 0.2249878661645299 0.011148646694989186 -0.049400190308264452 0.13950259613632618 -0.052783116133107801 -0.018029865689598173 0.32958561843570172 0.052126582951014792
leaf_weight=686.97007256746292 105.75920870155096 1340.3273625522852 21.217576764523983 130.39800830185413 453.80294235795736 17.296452887356281 25.510937854647636 88.130902357399464 29.860410042107105 508.79093021899462 160.30632049590349 72.573722183704376 640.80266007035971 28.63096496462822 36.18245954811573 42.653707690536976 27.057654820382595 22.872510232031345 53.880535691976547 86.381308443844318 26.845108382403851 83.846022203564644 17.866722509264946 37.001696705818176 545.78652239590883 20.443169355392456 5.8116434291005126 200.11324084550142 14.980711370706556 105.60584772378206
leaf_count=9070 1356 16713 279 905 5350 130 335 1056 247 6319 2104 829 7680 347 299 564 361 242 393 775 328 703 123 456 7149 180 76 2409 180 1273
internal_value=-0.000254406 0.00562616 0.09957 0.188049 -0.0234385 -0.00946771 -0.000486205 -0.0219295 0.00617242 0.023231 0.0536242 -0.00244738 0.021902 0.0319746 -0.00497171 0.0699591 0.0993899 0.126541 0.138985 0.0893128 0.0898779 0.14731 0.0872873 0.0772205 -0.0423487 0.0320218 0.150166 0.00844522 0.0342537 0.0112331
internal_weight=5637.71 4496.93 274.671 151.616 1140.77 123.056 4222.26 1000.57 3221.69 1081.61 572.816 2140.09 799.758 452.073 229.146 222.928 180.274 153.216 120.743 158.955 68.8392 130.344 46.4977 66.8621 591.741 45.9541 41.9941 408.831 208.717 193.737
internal_count=68231 53811 2670 1184 14420 1486 51141 12582 38559 12562 6243 25997 9284 5147 2807 2340 1776 1415 1096 1604 703 1173 470 703 7664 515 375 4918 2509 2329
cat_boundaries=0 1 6 7 8 9 10
cat_threshold=7826 1 1073741840 50626577 627497992 109052930 66592 222309 1056 131318
is_linear=0
shrinkage=0.05


Tree=6
num_leaves=31
num_cat=6
split_feature=9 9 6 9 4 6 4 9 4 9 4 7 9 6 6 4 9 9 6 4 6 6 6 9 9 6 9 6 6 6
split_gain=280.821 867.607 798.346 416.382 399.176 220.688 239.651 165.983 383.251 288.154 265.536 188.8 186.502 299.574 271.437 190.862 181.005 154.181 177.351 151.416 144.001 137.279 116.351 113.244 312.751 141.035 124.839 233.545 112.292 110.301
threshold=29.500000000000004 31.500000000000004 10.500000000000002 30.500000000000004 0 10.500000000000002 1 58.500000000000007 2 59.500000000000007 3 21.500000000000004 65.500000000000014 7.5000000000000009 8.5000000000000018 4 34.500000000000007 32.500000000000007 4.5000000000000009 5 3.5000000000000004 9.5000000000000018 5.5000000000000009 66.500000000000014 68.500000000000014 6.5000000000000009 69.500000000000014 1.5000000000000002 6.5000000000000009 3.5000000000000004
decision_type=2 2 2 2 9 2 9 2 9 2 9 2 2 2 2 9 2 2 2 9 2 2 2 2 2 2 2 2 2 2
left_child=4 2 -2 -4 -1 7 -7 10 9 11 17 29 14 15 -11 -14 19 18 20 -12 -3 -16 -21 25 -25 -17 28 -28 -26 -9
right_child=1 5 3 -5 -6 6 -8 8 -10 12 16 -13 13 -15 21 23 -18 -19 -20 22 -22 -23 -24 24 26 -27 27 -29 -30 -31
leaf_value=0.026458670365377652 -0.0092061443303014939 -0.049015708926335194 -0.053778714748770176 0.18719800377505202 -0.040476739173560455 -0.041845871087725833 0.0080197821484076209 0.12318005787271874 -0.015877229123355759 -0.034086895227482872 -0.039749137789960351 0.17503331456913565 -0.030136035428510361 -0.051200075988075279 0.12316728212694135 0.21627305769068414 0.0029841210408478305 -0.027400480374653244 -0.052849612005975058 0.017436927130687445 0.47468952348878379 -0.010157439477114781 0.09767942388475058 -0.056650442614777863 0.10353970712641453 -0.057243333485329943 0.2571913729614656 -0.053808573934806737 0.2214461219432553 0.0028495715140756626
leaf_weight=298.41407207399607 121.64282346516848 1.7706654891371707 20.278216004371643 149.97036047279835 820.64461077749729 570.84510879963636 411.92924603819847 34.676983237266541 421.97503601759672 187.13959103822708 36.042335897684097 61.265269353985786 33.279862679541111 50.637301526963711 52.715748429298401 35.165235251188278 1077.1790152341127 810.30484498292208 5.5626557692885399 69.467756785452366 4.6225747093558311 30.305513985455036 130.25051181763411 30.562109678983688 47.309357210993767 5.3656133636832228 8.3320637494325656 21.119569875299931 35.944826379418373 42.30182945728302
leaf_count=3493 1486 23 279 905 10927 7664 4918 270 5275 2517 436 397 378 688 456 300 13126 10268 71 717 58 373 1298 310 408 43 78 291 260 518
internal_value=-0.000329096 0.00523531 0.0885854 0.158451 -0.0227474 -0.000536049 -0.0212851 0.00576963 0.0215662 0.0445179 -0.00235258 0.10955 0.0286044 0.0581727 -0.000688543 0.0837206 0.0115879 -0.0244602 0.152688 0.0513502 0.330354 0.0744855 0.066489 0.10054 0.0849603 0.179889 0.123421 0.0345788 0.15471 0.0572097
internal_weight=5627.02 4507.96 291.891 170.249 1119.06 4216.07 982.774 3233.3 1098.1 676.121 2135.2 138.244 537.877 267.716 270.161 217.079 1312.94 822.261 11.9559 235.761 6.39324 83.0213 199.718 183.799 143.268 40.5308 112.706 29.4516 83.2542 76.9788
internal_count=68231 53811 2670 1184 14420 51141 12582 38559 12562 7287 25997 1185 6102 2756 3346 2068 15577 10420 152 2451 81 829 2015 1690 1347 343 1037 369 668 788
cat_boundaries=0 6 11 16 22 27 32
cat_threshold=717228033 554238496 268435458 2751463434 3859038210 162 262145 1073741840 50692113 627366920 109052930 1 17596416 17137667 57081352 377487490 1 16810016 285573122 2154225162 33817602 2 1 0 16809986 8 2 570425344 536870912 1 16785408 1434468352
is_linear=0
shrinkage=0.05


Tree=7
num_leaves=31
num_cat=6
split_feature=9 9 6 3 9 8 6 3 9 3 3 9 9 7 6 8 9 9 6 9 7 6 6 6 7 3 8 3 9 9
split_gain=256.513 740.907 628.908 471.246 318.065 260.931 201.328 214.568 146.18 354.211 254.08 257.038 205.655 153.968 147.426 164.731 155.954 138.742 261.021 122.268 113.751 112.146 94.9378 352.698 92.0159 91.5285 90.1181 198.93 96.0151 92.9176
threshold=29.500000000000004 31.500000000000004 10.500000000000002 0 30.500000000000004 1.0000000180025095e-35 10.500000000000002 1 58.500000000000007 2 3 34.500000000000007 59.500000000000007 21.500000000000004 5.5000000000000009 1.0000000180025095e-35 68.500000000000014 35.500000000000007 11.500000000000002 33.500000000000007 21.500000000000004 3.5000000000000004 6.5000000000000009 5.5000000000000009 33.000000000000007 4 1.0000000180025095e-35 5 44.500000000000007 52.500000000000007
decision_type=2 2 2 9 2 2 2 9 2 9 9 2 2 2 2 2 2 2 2 2 2 2 2 2 2 9 2 9 2 2
left_child=3 2 5 -1 -4 -2 8 17 10 24 11 19 13 21 15 -14 -17 18 -8 22 -16 -11 23 -3 -10 -6 29 -28 -29 -12
right_child=1 6 4 -5 25 -7 7 -9 9 12 26 -13 14 -15 20 16 -18 -19 -20 -21 -22 -23 -24 -25 -26 -27 27 28 -30 -31
leaf_value=-0.050043416263442581 -0.041033777493287085 -0.035758744505508852 -0.053531588987165452 0.01575209429900239 0.16929709846032948 0.15869600966741326 -0.05392947682262738 0.0073670296722359273 -0.026134145325016768 0.11057978310862436 -0.01252904147067181 0.0049455067461958973 -0.0290312906501849 0.1459952454567901 0.056026296497524768 -0.053447532099891872 0.17273558791050075 -0.051906756323933871 0.11838625807996753 0.10959444363420079 -0.020817884251007023 -0.0041422040498543247 -0.038979505904372602 0.25251512651329244 0.079377926880486338 0.0030362512487758673 -0.044865514449311014 0.023072645123794599 0.15442996384266705 -0.046197597693185544
leaf_weight=625.88952194526792 101.35806717723608 28.070005849003792 19.376484043896198 472.25662451609969 146.537064909935 19.391435667872429 54.444162078201771 404.88863606750965 352.65942489355803 37.850516863167286 946.81849797070026 640.43354267627001 163.95670153200626 70.560975730419159 327.37003373354673 11.679263584315775 21.478515677154064 469.76707471907139 36.694694142788649 99.692614927887917 56.30456904694438 48.362997621297836 32.632232882082462 16.915629535913467 21.832740992307663 19.588097617030144 47.799433633685112 24.584710873663425 32.370004646480083 261.75833658874035
leaf_count=8905 1356 310 279 5515 789 130 775 4799 4469 270 12136 7620 2139 422 3370 165 129 6629 379 772 733 595 337 176 270 116 658 281 335 3372
internal_value=-0.00038412 0.00488624 0.0799597 -0.022057 0.137745 -0.00881257 -0.000576857 -0.0206157 0.00538956 0.0200841 -0.0022767 0.0194698 0.0398772 0.0912321 0.0266793 -0.00844245 0.0929949 -0.0402357 0.0154479 0.0729676 0.0447338 0.0462363 0.0257791 0.0728476 -0.0194312 0.160104 -0.015849 0.0284795 0.0833481 -0.0198285
internal_weight=5613.32 4515.18 306.251 1098.15 185.502 120.75 4208.93 965.795 3243.13 1112.06 2131.08 817.744 737.564 156.774 580.789 197.114 33.1578 560.906 91.1389 177.31 383.675 86.2135 77.6179 44.9856 374.492 166.125 1313.33 104.754 56.9547 1208.58
internal_count=68231 53811 2670 14420 1184 1486 51141 12582 38559 12562 25997 9215 7823 1287 6536 2433 294 7783 1154 1595 4103 865 823 486 4739 905 16782 1274 616 15508
cat_boundaries=0 1 2 3 4 5 6
cat_threshold=7314 66592 154258 6802 1024 66560
is_linear=0
shrinkage=0.05


Tree=8
num_leaves=31
num_cat=5
split_feature=9 9 4 7 9 4 9 9 9 7 8 7 7 8 9 9 7 7 4 4 9 7 9 9 9 7 7 4 9 9
split_gain=235.251 648.633 354.641 336.844 217.955 152.805 163.227 211.449 132.518 114.287 102.098 106.346 94.9121 72.4054 70.8303 402.002 692.004 594.388 234.705 180.09 105.098 111.722 143.345 86.2512 303.678 155.442 253.902 83.8363 99.2064 164.34
threshold=29.500000000000004 31.500000000000004 0 23.500000000000004 30.500000000000004 1 58.500000000000007 59.500000000000007 32.500000000000007 10.500000000000002 1.0000000180025095e-35 2.5000000000000004 22.500000000000004 1.0000000180025095e-35 52.500000000000007 51.500000000000007 10.500000000000002 6.5000000000000009 2 3 65.500000000000014 21.500000000000004 69.500000000000014 48.500000000000007 49.500000000000007 12.500000000000002 19.000000000000004 4 58.500000000000007 59.500000000000007
decision_type=2 2 9 2 2 9 2 2 2 2 2 2 2 2 2 2 2 2 9 9 2 2 2 2 2 2 2 9 2 2
left_child=2 3 -1 10 13 6 8 -8 9 -3 11 -2 -9 -5 15 18 17 -17 23 -16 27 22 -22 -7 25 -25 -27 28 -21 -30
right_child=1 5 -4 4 -6 14 7 12 -10 -11 -12 -13 -14 -15 19 16 -18 -19 -20 20 21 -23 -24 24 -26 26 -28 -29 29 -31
leaf_value=0.025577912349904804 0.075300475273448728 0.23760251718578168 -0.038506597137600809 -0.053522733415849399 0.13736631347728379 -0.026117157405084326 0.075922444846024631 0.011414549882488611 -0.032900220588424144 -0.053090105923956146 0.12480528181251749 -0.037316086277548309 -0.042499178972880081 0.15104653895474349 -0.0222830198435909 -0.053696361912986136 -0.05443538975113793 0.41739698259404934 0.0218171155842843 -0.050148627456086059 0.079857396271275499 -0.030338025207984773 -0.043369766849033285 -0.04472908513479238 -0.04527768276904251 0.39574067555979492 0.018204611808047968 0.026453203699337194 0.066962561739563817 -0.025682691271009857
leaf_weight=289.84963731467724 28.260902754962444 8.3903353512287122 788.25984217971563 22.429501123726372 163.39879719167948 485.73464527726173 91.658444035798311 210.00867116451263 736.02453442290425 5.5276235640048972 16.626732669770718 80.181520976126194 133.32156333699822 5.2487417273223391 635.69620521739125 9.1512411683797819 25.817404687404633 24.464293852448463 1014.1343506388366 120.6078991368413 148.93628439307213 41.86579817533493 27.917828146368265 6.0604504048824337 43.654508873820305 11.114585511386396 7.4508115425705901 201.71546893566847 73.50856875628233 136.71721677854657
leaf_count=3284 218 82 11136 329 874 6283 742 2398 9875 72 105 1111 1887 33 7877 115 323 304 11560 1643 1311 571 378 80 567 144 97 2444 640 1748
internal_value=-0.000407101 0.00460231 -0.021392 0.0736568 0.115397 -0.000596702 -0.0157323 0.00849141 -0.0299984 0.12224 0.00980579 -0.00787897 -0.00951288 -0.0141453 0.00538565 0.0124788 0.140015 0.289223 0.00763341 -0.00289596 0.0136181 0.0429731 0.0603632 -0.0183823 0.0338383 0.173906 0.245402 0.0018024 -0.0136043 0.00670476
internal_weight=5593.73 4515.62 1078.11 316.146 191.077 4199.48 1184.93 434.989 749.942 13.918 125.069 108.442 343.33 27.6782 3014.55 1627.58 59.4329 33.6155 1568.15 1386.97 751.269 218.72 176.854 554.015 68.2804 24.6258 18.5654 532.549 330.834 210.226
internal_count=68231 53811 14420 2670 1236 51141 15056 5027 10029 154 1434 1329 4285 362 36085 19473 742 419 18731 16612 8735 2260 1689 7171 888 321 241 6475 4031 2388
cat_boundaries=0 6 12 18 24 29
cat_threshold=683673601 554238496 268435458 2751463434 637812738 34 9437185 2147549232 3540287488 2150023274 279618 50 128 1090830856 65538 591412736 1527324673 9 709148688 37749760 8240 218103825 70259616 2304 67641856 16777216 545325441 4200964 2189426704
is_linear=0
shrinkage=0.05


Tree=9
num_leaves=31
num_cat=7
split_feature=8 3 6 6 6 6 6 6 4 6 6 6 6 6 6 4 7 6 0 6 4 5 5 0 6 6 4 6 6 0
split_gain=24.4303 182.478 146.067 48.3525 63.8294 45.8725 34.9253 41.5292 43.7086 31.9518 25.1351 58.7292 50.8413 32.1129 36.0102 22.8872 18.4088 12.7768 8.88151 6.90845 6.33949 6.20545 5.86661 5.86597 5.83804 7.23441 4.75987 6.04027 27.8595 3.99075
threshold=1.0000000180025095e-35 0 2.5000000000000004 8.5000000000000018 11.500000000000002 7.5000000000000009 2.5000000000000004 1.5000000000000002 1 1.5000000000000002 2.5000000000000004 3.5000000000000004 1.5000000000000002 5.5000000000000009 6.5000000000000009 2 15.500000000000002 4.5000000000000009 18.500000000000004 13.000000000000002 3 4 5 10.500000000000002 8.5000000000000018 3.5000000000000004 6 5.5000000000000009 4.5000000000000009 13.500000000000002
decision_type=2 9 2 2 2 2 2 2 9 2 2 2 2 2 2 9 2 2 2 2 9 9 9 2 2 2 9 2 2 2
left_child=6 3 9 5 -5 10 7 22 -9 -3 12 -12 -2 17 -15 19 -7 -13 -16 24 -17 26 -1 -14 25 -8 -22 28 -28 -19
right_child=1 2 -4 4 -6 16 15 8 -10 -11 11 13 23 14 18 20 -18 29 -20 -21 21 -23 -24 -25 -26 -27 27 -29 -30 -31
leaf_value=0.0064641656660554825 -0.052166751729532772 -0.052369875709132242 -0.053271218825960254 -0.053914651094452849 0.068867622488736957 0.080020704111494451 0.0047828604073397625 0.0057342000712202346 -0.04700046747857204 0.068355682200396048 -0.054205003225398722 0.039966506625960768 0.14914061604783624 -0.053865938716394335 0.027310593102593785 0.0061169654813865819 0.17150482277487758 0.10322945782509962 0.10196055377463253 -0.039822189346794018 0.0020776699427083054 0.0016763570649871923 -0.0074630301788825839 0.094927295281012902 -0.0017722254707322927 -0.013772309867489783 0.0025517027851470414 -0.0032079553169416762 -0.046913593965516157 0.068950456677020641
leaf_weight=106.34915088117123 5.61678198352456 6.2676063887774935 132.02583534643054 25.474152896553278 17.9540930762887 13.105081140995027 60.792180456221104 59.087582524865866 127.98906948417425 38.382526136934757 16.04672933369875 23.958177722990513 8.1115515232086199 13.511839006096126 11.873120501637461 615.86347967386246 10.297326870262621 20.367714986205101 6.2076968923211089 16.893179226666689 224.3746296018362 2708.6689340882003 210.73916708678007 19.520636044442654 275.30633293837309 367.71900497376919 73.399351820349693 297.75353926047683 46.206831373274326 18.970009930431843
leaf_count=1288 83 93 1981 356 196 101 758 741 1857 266 216 270 69 179 122 7482 80 138 62 212 2750 33009 2425 166 3369 4653 895 3679 602 133
internal_value=-0.000441283 0.0116631 -0.0253859 0.0419209 -0.00299757 0.0560856 -0.00134645 -0.0138497 -0.0325282 0.0512184 0.0454308 0.0338718 0.0836303 0.0488605 0.00747538 -1.82003e-07 0.121046 0.0693937 0.0536351 -0.0081338 0.00149343 0.000626221 -0.00280711 0.111503 -0.0074761 -0.0111278 -0.00375588 -0.00687871 -0.0165394 0.0870425
internal_weight=5578.83 387.691 176.676 211.015 43.4282 167.587 5191.14 504.165 187.077 44.6501 144.184 110.935 33.249 94.8886 31.5927 4686.98 23.4024 63.2959 18.0808 720.711 3966.27 3350.4 317.088 27.6322 703.818 428.511 641.734 417.36 119.606 39.3377
internal_count=68231 4511 2340 2171 552 1619 63720 6311 2598 359 1438 1120 318 904 363 57409 181 541 184 8992 48417 40935 3713 235 8780 5411 7926 5176 1497 271
cat_boundaries=0 1 7 13 19 22 25 30
cat_threshold=148083 536872961 1056 16 2147483673 16386 2689 42238608 2147729408 1073807364 75501826 304882944 43 537395201 1661730816 562045321 2301633025 4194321 2048 140263426 856752144 691 2421686784 8167552 266 134234368 1 269238272 537136144 3372367874
is_linear=0
shrinkage=0.05


Tree=10
num_leaves=31
num_cat=7
split_feature=9 9 3 6 9 6 3 8 9 6 9 3 3 9 9 9 6 3 6 9 6 3 7 6 6 9 9 9 3 9
split_gain=229.209 575.623 441.705 431.781 225.01 176.894 180.253 173.865 170.224 249.298 132.708 342.004 234.617 200.89 162.192 140.074 299.41 207.348 193.078 176.118 128.439 114.538 100.036 88.6727 83.1933 148.152 842.99 97.1651 94.4757 95.8385
threshold=29.500000000000004 31.500000000000004 0 10.500000000000002 30.500000000000004 10.500000000000002 1 1.0000000180025095e-35 35.500000000000007 11.500000000000002 58.500000000000007 2 3 34.500000000000007 59.500000000000007 65.500000000000014 8.5000000000000018 4 7.5000000000000009 69.500000000000014 9.5000000000000018 5 23.500000000000004 8.5000000000000018 7.5000000000000009 48.500000000000007 49.500000000000007 32.500000000000007 6 35.500000000000007
decision_type=2 2 9 2 2 2 9 2 2 2 2 9 9 2 2 2 2 9 2 2 2 9 2 2 2 2 2 2 9 2
left_child=2 3 -1 7 -5 10 8 -2 9 -7 12 -12 13 21 22 16 -16 18 19 -17 -18 -3 -13 24 27 28 -27 -14 29 -26
right_child=1 5 -4 4 -6 6 -8 -9 -10 -11 11 14 23 -15 15 17 20 -19 -20 -21 -22 -23 -24 -25 25 26 -28 -29 -30 -31
leaf_value=-0.05121996831274498 -0.035552439173628082 -0.034807139656998443 0.013074522752408533 -0.053202217946290944 0.12966114382591512 -0.053575761580495568 0.0042146696002970585 0.11723419386318906 -0.053833440803856283 0.11636724783165152 -0.019409890443538715 0.051292716691760193 0.11144385433557685 0.003259320808134865 -0.034545655074463798 0.10881535931054753 0.11657068186722253 -0.029449379121261911 -0.026712803153865164 -0.053579580290348872 -0.011962827878770239 0.067575356343975421 0.13067598015294346 -0.047874567825064135 0.16769454753400992 0.36796847146133449 -0.046274532852013321 -0.021919517423582981 -0.046964738781547173 -0.017597483292631399
leaf_weight=556.52906503900886 97.154310952872038 28.813547678291798 502.74240246042609 18.400593131780624 185.89647462964058 47.666586510837078 442.29063277691603 22.925249576568604 409.6402330994606 39.24331609159708 378.47741288691759 102.10763718932867 13.83689623698592 878.06807813048363 189.84999540448189 177.58794788271189 61.655443131923676 64.066741991788149 40.077792249619961 18.324073314666748 28.238717943429947 198.42695388942957 65.416207872331142 213.48238763213158 13.011724010109903 17.936959125101566 38.382115110754967 660.59340461716056 64.236273627728224 14.790742024779318
leaf_count=8571 1375 335 5906 284 893 729 5302 126 6176 372 4916 898 138 10467 2620 1278 491 790 550 264 362 1741 345 2839 131 188 523 8774 865 183
internal_value=-0.00012317 0.00477168 -0.0210621 0.0689386 0.113149 -0.000177096 -0.0193057 -0.00626797 -0.0395511 0.0231484 0.00531816 0.0192159 -0.00198591 0.0139851 0.0385285 0.026502 0.00102884 0.0502258 0.0701563 0.0935811 0.0761701 0.0560033 0.0823803 -0.0189772 -0.0116991 0.0221735 0.0859867 -0.0191598 -0.0168708 0.0509657
internal_weight=5589.87 4530.6 1059.27 324.377 204.297 4206.22 938.841 120.08 496.55 86.9099 3267.38 1125.8 2141.58 1105.31 747.325 579.801 279.744 300.057 235.99 195.912 89.8942 227.241 167.524 1036.27 822.788 148.358 56.3191 674.43 92.0387 27.8025
internal_count=68432 53955 14477 2678 1177 51277 12579 1501 7277 1101 38698 12514 26184 12543 7598 6355 3473 2882 2092 1542 853 2076 1243 13641 10802 1890 711 8912 1179 314
cat_boundaries=0 1 2 3 4 5 6 7
cat_threshold=7170 66560 154322 170674 9248 176 16389
is_linear=0
shrinkage=0.05


Tree=11
num_leaves=31
num_cat=7
split_feature=9 9 3 3 6 6 3 9 6 9 8 9 3 3 9 9 9 6 3 6 9 6 3 6 7 6 6 6 6 9
split_gain=209.761 507.116 420.577 382.672 194.644 161.435 171.256 162.854 211.72 147.697 139.891 118.133 302.405 214.423 172.365 129.832 113.672 295.409 183.194 159.837 145.212 104.319 99.555 85.1839 82.8588 80.4004 75.1474 102.807 74.3446 173.832
threshold=29.500000000000004 31.500000000000004 0 1 10.500000000000002 10.500000000000002 2 35.500000000000007 11.500000000000002 30.500000000000004 1.0000000180025095e-35 58.500000000000007 3 4 34.500000000000007 59.500000000000007 65.500000000000014 8.5000000000000018 5 7.5000000000000009 69.500000000000014 9.5000000000000018 6 8.5000000000000018 23.500000000000004 3.5000000000000004 5.5000000000000009 3.5000000000000004 1.5000000000000002 69.500000000000014
decision_type=2 2 9 9 2 2 9 2 2 2 2 2 9 9 2 2 2 2 9 2 2 2 9 2 2 2 2 2 2 2
left_child=2 3 -1 4 10 11 7 8 -7 -6 -2 13 15 14 22 24 17 -17 19 20 -18 -19 -3 -15 25 -13 27 -24 29 -14
right_child=1 5 -4 -5 9 6 -8 -9 -10 -11 -12 12 28 23 -16 16 18 21 -20 -21 -22 -23 26 -25 -26 -27 -28 -29 -30 -31
leaf_value=-0.050921781920217839 -0.020627808171611382 -0.034228862986783751 0.012302154253936182 -0.048697365467592769 -0.052702337126439895 -0.053368131732953128 0.003994873612202336 -0.053630132967745138 0.10145104845302221 0.12775224097217638 0.13109299195956811 0.096142836024043041 -0.053645621968739204 -0.011332300139483451 0.0030879974341886905 -0.034421627660187769 0.096744102785346897 0.10556021240763513 -0.027673778278302048 -0.025971536399278874 -0.053339039822725948 -0.0083071910211903448 0.070065400715683041 -0.04739484799500171 0.11574325101622612 0.0084340166027281355 0.085212648154493253 -0.056201763241072927 -0.025738716248485002 0.25777333875296837
leaf_weight=532.46649708226323 54.000203873962164 28.026039958000183 508.08325764909387 59.56028026342392 11.98727699741721 45.514183655381203 443.80961344018579 391.10202967748046 42.679479867219925 184.63923443853855 21.011116907000542 45.301873989403248 10.52806853502989 815.1420482583344 880.38864324986935 189.94577340036631 189.43899264186621 69.288956433534622 66.960829768329859 39.186432521790266 17.507457874715328 28.19465796649456 41.320630773901939 205.07548224553466 69.845707789063454 61.929748497903347 140.53773405402899 26.264560185372829 339.37339502200484 7.6423178836703292
leaf_count=8571 777 335 5906 762 194 729 5302 6176 372 839 106 280 137 10802 10467 2692 1278 523 846 550 264 365 349 2839 350 637 1130 262 4531 61
internal_value=-0.00017631 0.00447654 -0.0204187 0.0640303 0.087352 -0.00022548 -0.0186916 -0.0389757 0.0215268 0.116704 0.0219215 0.00498329 0.0180179 -0.00193947 0.0131528 0.0352566 0.0245956 0.00187104 0.0454343 0.0638766 0.0840034 0.072601 0.051194 -0.0184097 0.0733388 0.0455898 0.0614259 0.0209118 -0.0198888 0.077755
internal_weight=5566.75 4526.2 1040.55 331.198 271.638 4195 923.105 479.296 88.1937 196.627 75.0113 3271.9 1135.14 2136.76 1116.54 777.6 600.523 287.429 313.094 246.133 206.946 97.4836 236.149 1020.22 177.077 107.232 208.123 67.5852 357.544 18.1704
internal_count=68432 53955 14477 2678 1916 51277 12579 7277 1101 1033 883 38698 12514 26184 12543 7785 6518 3580 2938 2092 1542 888 2076 13641 1267 917 1741 611 4729 198
cat_boundaries=0 1 2 3 4 5 6 7
cat_threshold=7170 132674 66560 107877 170674 9248 176
is_linear=0
shrinkage=0.05


Tree=12
num_leaves=31
num_cat=13
split_feature=4 4 5 5 4 5 4 0 7 4 5 5 4 4 1 5 1 7 6 7 7 7 7 6 6 6 6 0 6 0
split_gain=6.37563 4.58171 3.26737 3.22216 2.62147 1.99956 1.74267 1.57132 2.09979 1.66738 1.69894 1.33754 2.4714 1.43921 1.20961 1.16872 1.15822 1.10047 1.11311 1.08683 1.08061 1.05067 0.985577 0.989985 1.15604 0.955077 0.928788 0.897698 1.39784 0.887898
threshold=0 1 2 3 4 5 6 21.500000000000004 30.000000000000004 7 8 9 10 11 5.5000000000000009 12 1.5000000000000002 6.5000000000000009 4.5000000000000009 7.5000000000000009 6.5000000000000009 15.500000000000002 8.5000000000000018 7.5000000000000009 8.5000000000000018 2.5000000000000004 5.5000000000000009 8.5000000000000018 5.5000000000000009 21.500000000000004
decision_type=9 9 9 9 9 9 9 2 2 9 9 9 9 9 2 9 2 2 2 2 2 2 2 2 2 2 2 2 2 2
left_child=2 21 -1 4 5 -3 15 8 9 -6 16 12 25 -13 -7 -5 -11 -12 -19 26 -18 -2 -22 -24 -25 -8 -16 28 -23 -17
right_child=1 3 -4 6 7 14 11 -9 -10 10 17 13 -14 -15 19 29 20 18 -20 -21 22 27 23 24 -26 -27 -28 -29 -30 -31
leaf_value=-0.0071533808280640227 -0.0046315634065418219 0.0045314283071169114 0.0064099530133085352 0.0040593469900152305 0.0056963433904984803 -0.0075825481775250213 -0.008286285864959787 -0.0087015534146587092 -0.0066433364037873331 0.0027310356605982334 -0.0035507324728658455 0.0042400229285896865 0.0070156773057619172 6.8980819496401979e-05 0.0095174981098348054 -0.0024134058030593486 -0.0016936482565897801 0.0080189488245993867 0.00049892811551291243 -0.024001669966737259 -0.040742183744352345 0.0046498343498263669 0.0049743837662715139 -0.037283308551082549 -0.011876509944908333 0.00095922848599952991 -0.028410347490708761 -0.010222365481310138 -0.030190936550017883 0.0021022803874207541
leaf_weight=42.194305807352066 75.996327865868807 29.657211687415838 454.38425711542368 81.535489037632942 107.92358800023794 207.52725533023477 37.700255274772644 68.459461584687233 130.23163586482406 17.672854948788881 137.38804788142443 221.0332821495831 219.02175397053361 2008.7038920670748 5.2527013942599323 910.13689026981592 19.421878527849913 58.354590207338333 323.29566900059581 22.393593803048134 3.8795162700116625 3.2942315600812462 5.6275049336254588 5.8817552439868477 23.860590048134327 104.44787761941552 2.1896676681935787 76.260381482541561 13.892094176262615 122.38058340921998
leaf_count=537 933 361 5628 1007 1320 2587 436 824 1495 217 1685 2704 2689 24855 66 11361 234 728 3979 284 48 46 68 74 294 1311 28 948 181 1504
internal_value=-0.000218786 -0.000754986 0.00512799 -0.000463886 -0.00274114 -0.00703007 0.000258804 -0.00140221 -0.000812557 0.000260815 -0.000799105 0.000970307 0.00375604 0.000501942 -0.00862081 -0.00138531 -0.00729669 0.000268195 0.00166364 -0.0185058 -0.0116434 -0.0086034 -0.0164229 -0.0135072 -0.0171765 -0.00136579 -0.0012073 -0.0126914 -0.0232352 -0.00185522
internal_weight=5540 5043.42 496.579 4873.98 1169.02 267.02 3704.96 901.997 833.538 703.306 595.382 2590.91 361.17 2229.74 237.363 1114.05 76.3441 519.038 381.65 29.836 58.6712 169.443 39.2494 35.3699 29.7423 142.148 7.44237 93.4467 17.1863 1032.52
internal_count=68432 62267 6165 60159 14292 3326 45867 10966 10142 8647 7327 31995 4436 27559 2965 13872 935 6392 4707 378 718 2108 484 436 368 1747 94 1175 227 12865
cat_boundaries=0 6 12 15 18 24 27 33 39 42 45 51 56 59
cat_threshold=536870928 2164819968 268468488 134250758 3322565441 1042 544 545259520 80 52430336 540016640 136 524289 625999872 4 1578131488 2786555081 36 67108865 66568 327682 2147749904 25428000 2048 134217728 2147483657 4 1225582592 4194320 125837440 1078349864 138477592 4128 172146948 69337089 16777345 4333569 268435472 1 134217728 2147753985 4 23330817 136839200 2705 4194304 512 2 8193 268435458 2048 128 460328 1073807394 537927744 263202 262144 155189760 2178
is_linear=0
shrinkage=0.05


Tree=13
num_leaves=31
num_cat=8
split_feature=9 9 3 3 6 6 4 8 9 9 6 9 3 4 9 6 9 9 3 8 6 8 3 6 9 9 9 3 6 9
split_gain=192.167 449.057 400.536 312.826 174.532 147.52 175.4 132.392 122.573 110.977 150.578 105.417 268.72 194.395 110.383 101.947 108.43 96.1585 117.123 165.568 126.464 94.0586 101.809 88.3954 112.073 82.111 323.986 151.947 120.257 109.813
threshold=29.500000000000004 31.500000000000004 0 1 10.500000000000002 10.500000000000002 2 1.0000000180025095e-35 30.500000000000004 35.500000000000007 11.500000000000002 58.500000000000007 3 4 59.500000000000007 5.5000000000000009 65.500000000000014 53.500000000000007 5 1.0000000180025095e-35 3.5000000000000004 1.0000000180025095e-35 6 5.5000000000000009 32.500000000000007 49.500000000000007 48.500000000000007 7 11.500000000000002 44.500000000000007
decision_type=2 2 9 9 2 2 9 2 2 2 2 2 9 9 2 2 2 2 9 2 2 2 9 2 2 2 2 9 2 2
left_child=2 3 -1 4 7 11 9 -2 -6 10 -7 13 14 23 -13 16 -16 -15 19 20 -19 22 -18 24 -3 26 27 -8 -28 -29
right_child=1 5 -4 -5 8 6 25 -9 -10 -11 -12 12 -14 17 15 -17 21 18 -20 -21 -22 -23 -24 -25 -26 -27 28 29 -30 -31
leaf_value=-0.050627027561676599 -0.028626101495100455 0.15933126362351935 0.011588290226629522 -0.040921752736122051 -0.052459084827591033 -0.052139595189698344 -0.047974848117612143 0.1181389424437177 0.11698804770914191 -0.049790020970461049 0.076573787637749413 0.067333412532955925 -0.019260689384037088 0.015329458384406625 -0.048012560803241136 0.037031632585034002 -0.045118806054793514 0.1132313157082343 -0.05065064395063687 0.18354432175596255 -0.0419301066283903 0.11063233045287453 0.056145791545830118 -0.035430150061664133 -0.0066375891384404641 -0.017450714501578292 0.2789417151747548 0.014998108522809004 -0.053761298067246881 0.11997370863690862
leaf_weight=509.2534723803401 49.559226062148809 10.434791423380373 513.10840511694551 61.470632139593363 11.204599712043999 45.903645314276218 69.040703885257244 22.137253597378731 191.67458148300648 403.03158316388726 44.775603137910366 183.21803162246943 351.30043203756213 1145.4057820476592 87.696801960468292 413.73691052570939 45.113602239638567 17.149095736443996 122.23860465735197 13.809119679033754 54.889163218438625 25.480928465723991 34.990248743444681 472.97733220085502 294.60561774671078 193.28785417228937 15.961840331554415 99.123666476458311 3.2045924365520468 33.259288195520639
leaf_count=8571 726 86 5906 819 190 764 829 106 837 6584 373 1267 4729 12875 1346 4095 557 211 1549 134 684 137 383 6573 4072 2352 144 1123 30 380
internal_value=-0.000206265 0.00422374 -0.0197809 0.0598223 0.0809442 -0.000245494 -0.0180819 0.0167214 0.107584 -0.0377805 0.0113758 0.00469926 0.0169606 -0.00186549 0.032897 0.0230272 -0.00692835 0.00957568 -0.021604 0.0229332 -0.00481802 0.0271613 0.000442072 -0.0216196 -0.000893402 0.00617141 0.0271707 0.00840418 0.223065 0.0385689
internal_weight=5539.04 4516.68 1022.36 336.046 274.576 4180.64 907.589 71.6965 202.879 493.711 90.6792 3273.05 1141.54 2131.51 790.237 607.018 193.282 1353.49 208.086 85.8474 72.0383 105.585 80.1039 778.018 305.04 413.878 220.59 201.424 19.1664 132.383
internal_count=68432 53955 14477 2678 1859 51277 12579 832 1027 7721 1137 38698 12514 26184 7785 6518 2423 15453 2578 1029 895 1077 940 10731 4158 4858 2506 2332 174 1503
cat_boundaries=0 1 2 8 9 15 16 17 18
cat_threshold=7170 132098 8667137 1074003984 2198175745 560389128 109052930 256 107877 536870913 2701131776 285671426 2204524040 1107558402 34 150096 66560 82
is_linear=0
shrinkage=0.05


Tree=14
num_leaves=31
num_cat=8
split_feature=8 3 7 3 7 7 3 4 7 7 7 7 7 7 7 7 4 7 7 3 1 5 7 4 7 7 7 7 7 7
split_gain=16.0073 167.111 54.8157 32.746 80.4988 44.3565 28.7809 24.5311 17.1164 25.3546 24.8519 14.0877 17.1309 11.7129 11.4823 21.7737 19.126 27.0095 11.1258 11.0965 8.33459 5.90982 5.74983 5.26437 6.8779 12.7464 7.56411 9.507 6.37527 7.20051
threshold=1.0000000180025095e-35 0 4.5000000000000009 1 4.5000000000000009 2.5000000000000004 2 3 6.5000000000000009 1.5000000000000002 19.000000000000004 25.500000000000004 26.500000000000004 2.5000000000000004 8.5000000000000018 9.5000000000000018 4 30.000000000000004 23.500000000000004 5 1.5000000000000002 6 5.5000000000000009 7 4.5000000000000009 2.5000000000000004 30.000000000000004 34.500000000000007 17.500000000000004 6.5000000000000009
decision_type=2 9 2 9 2 2 9 9 2 2 2 2 2 2 2 2 9 2 2 9 2 9 2 9 2 2 2 2 2 2
left_child=7 3 6 4 5 -2 13 23 9 -5 -10 -12 -13 -3 -6 -16 18 -18 -17 -4 -14 -9 -11 28 25 -25 -26 -28 29 -1
right_child=1 2 19 8 14 -7 -8 21 10 22 11 12 20 -15 15 16 17 -19 -20 -21 -22 -23 -24 24 26 -27 27 -29 -30 -31
leaf_value=-0.0053939162586445974 -0.022525331754092989 -0.018351027396295471 0.01499767343616025 0.17386764789884787 -0.025541950682010584 0.12469501516710893 -0.032277021503178287 -0.0064677848409203115 0.11036765676835435 -0.046361796510390997 0.004083545696541061 0.20679121362907332 0.13363409827652781 0.062845447300552623 0.058494818522949743 0.063013009040396306 -0.043718163365434222 0.05280472891681029 -0.01940361980363901 -0.04540660613657764 0.023642886175558431 0.0019243958485116429 0.03078739487562961 -0.0029348995252468178 -0.0023168058763920864 -0.029587182591893871 -0.039078563182697021 -0.004404791255934383 -0.0032782107981037412 -0.028438858743070106
leaf_weight=54.667180135846138 6.3819917924702194 5.117889203131198 8.8529035039246065 2.067362241446971 27.746853493154049 24.123667541891336 13.624146051704882 214.47261341661215 38.130599461495876 5.8203865960240346 11.481822352856399 2.1759247109293929 2.2629975043237192 28.117598153650761 18.976045191287994 16.357178423553709 35.450683303177357 8.972637787461279 5.2876014187932006 123.57316594943404 7.2141444198787212 3258.0297886133194 3.9183103516697884 111.8421164304018 1133.5056058503687 75.371509175747633 32.395852036774158 51.531494498252869 96.56832491979003 92.00309432297945
leaf_count=689 84 81 91 19 313 192 157 2735 341 64 135 20 23 175 112 153 431 61 61 1959 67 40550 45 1352 14023 1036 440 611 1206 1206
internal_value=-0.000249276 0.00943788 -0.0257334 0.0380346 0.0204144 0.0937592 0.0192048 -0.000998951 0.0658534 0.0189876 0.0854888 0.0439701 0.082476 0.0385964 0.00227593 0.01143 -0.00208038 -0.0196271 0.0292167 -0.043617 0.0515503 0.00138738 -0.0148156 -0.00600235 -0.0047395 -0.0137018 -0.00339511 -0.0178789 -0.0127956 -0.0198931
internal_weight=5516.04 395.654 179.286 216.368 143.297 30.5057 46.8596 5120.39 73.0715 11.8061 61.2655 23.1349 11.6531 33.2355 112.791 85.0441 66.0681 44.4233 21.6448 132.426 9.47714 3472.5 9.7387 1647.89 1404.65 187.214 1217.43 83.9273 243.239 146.67
internal_count=68432 4584 2463 2121 1407 276 413 63848 714 128 586 245 110 256 1131 818 706 492 214 2050 90 43285 109 20563 17462 2388 15074 1051 3101 1895
cat_boundaries=0 1 2 3 9 14 15 18 24
cat_threshold=131187 50 1024 105153184 12599296 64 119539200 955777152 171 32768 0 0 0 377487360 49664 34365475 604377296 4100 262144 16384 0 33554432 136314880 169
is_linear=0
shrinkage=0.05


Tree=15
num_leaves=31
num_cat=7
split_feature=9 9 3 3 6 6 4 9 6 9 9 3 3 9 3 9 6 9 9 9 9 6 6 9 6 9 6 6 3 6
split_gain=154.501 406.384 399.122 295.606 136.506 131.881 160.161 111.971 122.468 109.447 89.5727 234.266 185.494 152.676 98.5903 90.021 123.746 90.1819 88.9562 91.0268 138.148 137.759 87.8967 118.845 82.5075 82.4741 163.348 148.723 78.8951 100.228
threshold=29.500000000000004 31.500000000000004 0 1 10.500000000000002 10.500000000000002 2 35.500000000000007 11.500000000000002 30.500000000000004 58.500000000000007 3 4 34.500000000000007 5 59.500000000000007 5.5000000000000009 65.500000000000014 69.500000000000014 68.500000000000014 66.500000000000014 7.5000000000000009 1.5000000000000002 69.500000000000014 8.5000000000000018 65.500000000000014 6.5000000000000009 8.5000000000000018 6 6.5000000000000009
decision_type=2 2 9 9 2 2 9 2 2 2 2 9 9 2 9 2 2 2 2 2 2 2 2 2 2 2 2 2 9 2
left_child=2 3 -1 4 -2 10 7 8 -7 -6 12 22 13 14 -3 -13 17 -17 19 20 25 -21 23 -12 -14 27 -27 28 29 -18
right_child=1 5 -4 -5 9 6 -8 -9 -10 -11 11 15 24 -15 -16 16 18 -19 -20 21 -22 -23 -24 -25 -26 26 -28 -29 -30 -31
leaf_value=-0.049539041166013452 0.019123978854043194 -0.036879366850829751 0.013236281355891928 -0.047761580450439989 -0.052322997750398274 -0.048583742600656524 0.0046991840713045841 -0.050434907193321499 0.066630492644237135 0.10583176263606418 -0.022263063118722753 0.061208948464007519 -0.01113222896235011 0.0018118593120736897 0.056462645931131407 -0.053489667209114217 -0.053699284438530143 0.018074542627216455 -0.053683378613912917 0.11408455397504634 -0.058365855907031153 -0.053630899704123249 -0.02344665245378541 0.20904524158526747 -0.047497937113079779 0.15030997790854986 -0.057831901673111488 0.069593208995086683 -0.04660267365410746 0.12259920786412037
leaf_weight=497.42152173444629 75.886739999055862 28.299154721200466 501.77682019397616 55.051317289471626 11.463219977915285 44.475006829947233 420.46902166679502 378.645752184093 47.664738953113556 202.19252316653728 12.665666211396456 186.68537413328886 797.40756924822927 877.10970920324326 216.76139526069164 78.426169529557228 13.373245198279617 99.968954540789127 25.417126771062613 74.965784519910812 38.985575914382935 14.524136424064634 359.09362557530403 9.7187577933073044 194.04616150632501 38.450830072164536 12.376729998737572 103.30583406984806 61.765630532056093 19.922332100570202
leaf_count=8714 892 346 5668 753 203 773 4961 6469 379 857 173 1233 10775 10336 1714 1265 178 1012 366 426 381 199 4928 67 2852 206 125 871 854 259
internal_value=-0.000589732 0.00335929 -0.0183747 0.0555287 0.0742789 -0.000967885 -0.0180138 -0.0376078 0.0109711 0.0973024 0.00368653 0.0149187 -0.00242091 0.0114658 0.0464514 0.0305951 0.0212751 -0.0133709 0.0366204 0.0427237 0.0290002 0.0867792 -0.0169916 0.0784259 -0.0180765 0.0427063 0.0995143 0.0280824 -0.0170018 0.0397787
internal_weight=5498.32 4499.12 999.198 344.594 289.542 4154.52 891.255 470.785 92.1397 213.656 3263.27 1149.65 2113.62 1122.17 245.061 768.168 581.482 178.395 403.087 377.67 288.18 89.4899 381.478 22.3844 991.454 249.195 50.8276 198.367 95.0612 33.2956
internal_count=68235 53853 14382 2705 1952 51148 12582 7621 1152 1060 38566 12543 26023 12396 2060 7375 6142 2277 3865 3499 2874 625 5168 240 13627 2493 331 2162 1291 437
cat_boundaries=0 1 2 7 8 9 10 11
cat_threshold=7810 132674 4194305 16 2198175745 694606860 41944066 162450 137906 176 65541
is_linear=0
shrinkage=0.05


Tree=16
num_leaves=31
num_cat=7
split_feature=9 3 9 3 6 4 9 6 6 8 9 9 3 3 9 3 6 6 9 9 6 8 9 9 9 6 6 4 9 7
split_gain=141.57 378.944 362.45 273.688 120.686 151.887 121.139 115.538 113.003 106.695 92.0453 79.7339 208.159 168.903 132.474 87.1722 79.7133 77.3624 90.7762 76.6863 108.589 103.386 79.425 76.6498 123.812 115.376 75.8873 90.6342 75.7295 71.803
threshold=29.500000000000004 0 31.500000000000004 1 10.500000000000002 2 35.500000000000007 10.500000000000002 11.500000000000002 1.0000000180025095e-35 30.500000000000004 58.500000000000007 3 4 34.500000000000007 5 8.5000000000000018 1.5000000000000002 69.500000000000014 59.500000000000007 5.5000000000000009 1.0000000180025095e-35 69.500000000000014 68.500000000000014 66.500000000000014 7.5000000000000009 1.5000000000000002 6 68.500000000000014 21.500000000000004
decision_type=2 9 2 9 2 9 2 2 2 2 2 2 9 9 2 9 2 2 2 2 2 2 2 2 2 2 2 9 2 2
left_child=1 -1 3 7 11 6 8 9 -6 -2 -9 13 17 14 15 -4 -15 18 -13 29 21 -21 23 24 -22 -25 -3 -28 -23 -14
right_child=2 26 4 -5 5 -7 -8 10 -10 -11 -12 12 19 16 -16 -17 -18 -19 -20 20 22 28 -24 25 -26 -27 27 -29 -30 -31
leaf_value=-0.04922177005220979 -0.021055747867631452 -0.043355273828145857 -0.03632530629763675 -0.047407220532211261 -0.047991314804773366 0.0031451017015105154 -0.052846758932114227 -0.052073293892944607 0.065335356722736174 0.10658694684148451 0.098344798155795471 -0.021565136719300694 0.027762652477739222 -0.010676666409089194 0.0017187000557877556 0.051813586075404316 -0.047044036056141034 -0.022729797867121218 0.17451252862006961 -0.031701526863265765 0.039390702757691652 -0.05299285185355776 -0.053451597430780984 0.10235280056047297 -0.057894365894741076 -0.053373144628841455 0.040425578186363172 -0.0040051215508014144 0.11181908795212414 0.089088720061222926
leaf_weight=476.19879229739308 51.861619584262371 53.815766405314207 27.469443969428539 54.614427745342255 40.809642322361469 450.38311596214771 338.12876279652119 10.592808693647383 47.440900206565857 23.782398000359535 206.59095034003258 12.431100234389305 103.1292484998703 790.05664110928774 878.39095565676689 225.08032041043043 186.3195538148284 352.08226393535733 11.040173031389713 141.96489594504237 255.34550313651562 9.6158207394182664 24.280133869498968 79.271391063928604 37.379380766302347 13.881292961537836 230.39712670445442 222.90281524881721 24.457310825586319 89.491431564092636
leaf_count=8714 765 598 346 779 743 5404 6079 197 356 107 857 173 819 10775 10336 1714 2852 4928 67 2004 2493 160 366 426 381 199 2466 2604 113 414
internal_value=-0.000603259 -0.017785 0.0031622 0.0522057 -0.000955195 -0.0174238 -0.0383329 0.0700386 0.0128782 0.0190967 0.0909648 0.00347053 0.0140329 -0.00231349 0.0108065 0.0428095 -0.0174471 -0.0164167 0.0708008 0.0285667 0.0199204 -0.0129022 0.0340197 0.0395489 0.0269353 0.0790611 0.0124542 0.0193737 0.065142 0.0563121
internal_weight=5469.21 983.315 4485.89 347.442 4138.45 876.762 426.379 292.828 88.2505 75.644 217.184 3261.69 1154.37 2107.32 1130.94 252.55 976.376 375.554 23.4713 778.816 586.196 176.038 410.158 385.878 292.725 93.1527 507.116 453.3 34.0731 192.621
internal_count=68235 14382 53853 2705 51148 12582 7178 1926 1099 872 1054 38566 12543 26023 12396 2060 13627 5168 240 7375 6142 2277 3865 3499 2874 625 5668 5070 273 1233
cat_boundaries=0 1 2 7 8 9 10 15
cat_threshold=7810 132162 4194305 16 17137665 690412552 1026 162450 137906 176 8388609 0 0 2214592520 67125378
is_linear=0
shrinkage=0.05


Tree=17
num_leaves=31
num_cat=9
split_feature=8 3 6 6 3 6 6 6 4 6 6 6 3 6 6 3 4 6 6 6 6 6 6 6 4 6 6 4 6 3
split_gain=16.5224 153.792 75.2799 36.1566 73.8925 39.8348 34.409 36.0868 39.1585 32.8978 32.8829 36.8106 50.7915 54.0203 39.196 29.801 25.3394 23.56 22.8973 30.0096 40.9474 32.5462 14.9603 7.59202 7.46187 6.96988 6.4919 8.22212 15.011 17.891
threshold=1.0000000180025095e-35 0 2.5000000000000004 2.5000000000000004 1 1.5000000000000002 2.5000000000000004 1.5000000000000002 2 3.5000000000000004 4.5000000000000009 5.5000000000000009 3 7.5000000000000009 8.5000000000000018 4 5 11.500000000000002 4.5000000000000009 13.000000000000002 8.5000000000000018 6.5000000000000009 5.5000000000000009 11.500000000000002 6 13.000000000000002 4.5000000000000009 7 5.5000000000000009 8
decision_type=2 9 2 2 9 2 2 2 9 2 2 2 9 2 2 9 9 2 2 2 2 2 2 2 9 2 2 9 2 9
left_child=6 3 15 5 10 -2 7 -1 -9 -6 -5 -12 -13 -14 -15 -3 25 -16 -11 20 21 22 -20 -22 -4 -8 -18 28 29 -28
right_child=1 2 24 4 9 -7 16 8 -10 18 11 12 13 14 17 -17 26 -19 19 -21 23 -23 -24 -25 -26 -27 27 -29 -30 -31
leaf_value=-0.0038007050702371843 -0.051434984043095114 0.042426090451657628 0.015378582523542003 -0.054847067254584506 -0.052893186103124795 0.10484341751329258 -0.0064823832892071153 0.0054414027672246212 -0.046456805397974602 0.1480915278354103 0.054538999829916016 -0.043301066987649919 -0.054727190288670326 0.19251065307225004 -0.051488357542665425 -0.031247915107231752 0.0068990347352138187 0.13504338363405141 0.05597865941757129 0.17539666718733118 -0.053286416834902699 0.12039567193935499 -0.052144079083702916 0.036826001526161424 -0.048742589657040966 -0.029653177278891586 0.011394142477449135 0.0031659648750373931 -0.00072437400599259126 -0.037421191792671775
leaf_weight=308.91628648340702 4.5906850844621649 35.966502364724874 5.939174510538578 21.560821864753962 4.6534384526312342 30.783102735877037 919.90501148998737 55.051207568496466 118.33980429545045 11.34117306768894 34.160268872976303 33.890051580965519 6.8384777940809753 7.5556214153766614 3.954345129430294 12.918539870530365 549.53268512710929 2.7900278940796852 10.941927202045916 5.8889083489775649 8.0519478283822519 21.72668219357729 4.372784197330474 3.1287732869386664 115.14688914269209 33.698852960020304 26.18899829685688 1793.3803528100252 1196.4760233722627 48.791288055479527
leaf_count=3619 75 223 59 291 64 223 11530 696 1867 103 191 430 75 48 59 161 6903 32 75 48 108 158 59 32 1997 404 367 22574 15085 679
internal_value=-0.000605693 0.00935909 -0.0256457 0.0364004 0.0289677 0.0843334 -0.00136887 -0.0140688 -0.0323209 0.0647783 0.000341457 0.0138237 -0.0114138 0.040674 0.114953 0.0251126 -2.6586e-05 0.0257916 0.0831705 0.0692234 0.0558178 0.0811149 0.0246442 -0.0275235 -0.0482993 -0.00723362 0.00188845 0.000994372 -0.00207331 -0.0237785
internal_weight=5436.48 386.2 169.971 216.229 180.855 35.3738 5050.28 482.307 173.391 70.1056 110.75 89.1888 55.0285 21.1385 14.3 48.885 4567.97 6.74437 65.4522 54.111 48.2221 37.0414 15.3147 11.1807 121.086 953.604 3614.37 3064.84 1271.46 74.9803
internal_count=68235 4511 2440 2071 1773 298 63724 6182 2563 647 1126 835 644 214 139 384 57542 91 583 480 432 292 134 140 2056 11934 45608 38705 16131 1046
cat_boundaries=0 1 2 8 9 10 16 21 27 28
cat_threshold=131187 50 536872961 1536 256 2147483673 16402 2689 2 1024 314859648 148480 2147680268 570433538 2184708225 4265 0 1024 0 0 1064960 201883676 4194816 268435570 215237124 432017408 256 3104
is_linear=0
shrinkage=0.05


Tree=18
num_leaves=31
num_cat=10
split_feature=9 3 9 3 4 9 9 9 9 9 3 4 4 9 3 9 9 3 9 9 9 9 9 8 9 9 4 9 4 9
split_gain=129.653 354.023 323.356 228.067 107.335 101.582 95.5102 94.4646 44.5159 376.077 221.706 142.054 137.163 64.3785 87.2129 74.1665 137.783 70.1254 61.5987 218.202 57.1226 100.726 66.5127 56.7971 53.1431 217.708 54.3377 70.6941 53.7958 51.5819
threshold=29.500000000000004 0 31.500000000000004 1 2 58.500000000000007 59.500000000000007 32.500000000000007 52.500000000000007 51.500000000000007 3 4 5 65.500000000000014 6 58.500000000000007 61.500000000000007 7 48.500000000000007 49.500000000000007 66.500000000000014 68.500000000000014 69.500000000000014 1.0000000180025095e-35 59.500000000000007 60.500000000000007 8 55.500000000000007 9 69.500000000000014
decision_type=2 9 2 9 9 2 2 2 2 2 9 9 9 2 9 2 2 9 2 2 2 2 2 2 2 2 9 2 9 2
left_child=1 -1 3 -2 5 7 -7 -4 9 11 -11 18 24 14 15 -14 -17 -15 -6 -20 -19 -22 -23 -16 26 -26 27 -10 29 -27
right_child=2 -3 4 -5 8 6 -8 -9 12 10 -12 -13 13 17 23 16 -18 20 19 -21 21 22 -24 -25 25 28 -28 -29 -30 -31
leaf_value=-0.046967559545962184 0.064572434865723713 0.013109085343078718 0.092231636476150056 -0.046528599484314093 -0.023190570391566172 0.045830558570204537 -0.0093777853262871844 -0.030285998671512722 0.061615766671901717 0.16436241355047354 -0.036317181923599923 0.014959542043988276 -0.04232412778935267 -0.035355037217784532 0.022620182129431551 0.025707186247224029 -0.052654969450003267 0.087994989320749409 0.12905644079822984 -0.04798091861527496 -0.041427613633284566 0.06865893714067979 -0.018167431040919252 0.1145615606748351 0.14346888213247241 -0.0086664576796093625 -0.050139686213903828 -0.054294884936877078 -0.036035838691223537 0.071894003055213471
leaf_weight=482.17362534999847 298.42347509413958 484.78923999518156 16.025534112006426 49.418556723743677 468.09612689167261 104.66441789641976 310.26065155863762 624.71072278916836 29.362128004431725 47.978102046996355 19.761796649545431 1068.0955211631954 130.38664331287146 29.363254856318235 133.71882855892181 197.26392528787255 78.258661132305861 52.220914702862501 30.001129660755396 41.129044253379107 39.685993902385235 100.17197471112013 28.122262042015791 19.179738137871027 21.903360232710838 107.52484495192766 192.15856172144413 23.644171584397554 178.69974189251661 24.255330827087164
leaf_count=9096 1978 5286 148 727 6514 721 4106 9586 343 521 243 11515 2009 401 1711 1882 1133 373 318 594 457 721 451 167 310 1425 2448 303 2502 246
internal_value=-0.000595846 -0.0171947 0.00299848 0.0492835 -0.000912327 -0.014581 0.0045441 -0.0272 0.00383546 0.00933311 0.124652 0.0044625 -0.00277808 0.0104928 0.00118211 -0.0109974 0.00342025 0.031732 -0.0162949 0.0266957 0.04048 0.0280438 0.0495882 0.032152 -0.0211751 -0.00849211 -0.0392027 0.0082582 -0.0192713 0.00573213
internal_weight=5431.45 966.963 4464.49 347.842 4116.64 1055.66 414.925 640.736 3060.98 1675.06 67.7399 1607.32 1385.92 808.372 558.808 405.909 275.523 249.564 539.226 71.1302 220.201 167.98 128.294 152.899 577.548 332.383 245.165 53.0063 310.48 131.78
internal_count=68235 14382 53853 2705 51148 14561 4827 9734 36587 19705 764 18941 16882 9305 6902 5024 3015 2403 7426 912 2002 1629 1172 1878 7577 4483 3094 646 4173 1671
cat_boundaries=0 1 2 8 9 15 21 22 23 29 34
cat_threshold=7826 149058 33824769 262160 2466643968 2737095208 2147763202 4096 1026 67108992 1073988096 98819 4340800 1493704769 51 147374616 574620672 536879400 68157457 3150720 2304 27682 213060 0 33555456 32 17 0 256 4719120 0 8 67108865 128
is_linear=0
shrinkage=0.05


Tree=19
num_leaves=31
num_cat=9
split_feature=8 3 6 6 6 4 6 3 6 6 6 3 6 6 6 4 6 6 6 6 6 6 6 3 6 5 4 6 5 6
split_gain=13.6304 132.562 69.4771 31.8574 33.3451 39.0205 30.3606 60.6558 32.7889 29.8233 31.3704 45.9861 44.6722 29.715 27.2536 23.6355 18.5027 16.4027 45.4322 13.5751 10.4605 23.569 13.0965 7.42347 6.94102 6.69844 6.34605 6.28991 6.05433 11.0527
threshold=1.0000000180025095e-35 0 2.5000000000000004 2.5000000000000004 1.5000000000000002 1 2.5000000000000004 2 1.5000000000000002 4.5000000000000009 5.5000000000000009 3 7.5000000000000009 8.5000000000000018 3.5000000000000004 4 11.500000000000002 13.000000000000002 8.5000000000000018 1.5000000000000002 4.5000000000000009 6.5000000000000009 5.5000000000000009 5 11.500000000000002 6 7 4.5000000000000009 8 5.5000000000000009
decision_type=2 9 2 2 2 9 2 9 2 2 2 9 2 2 2 9 2 2 2 2 2 2 2 9 2 9 9 2 9 2
left_child=3 6 19 4 25 -6 8 9 -2 -8 -11 -12 -13 -14 -9 -5 -15 18 20 -3 -16 22 -22 -4 -20 -1 -17 -28 29 -29
right_child=1 2 23 15 5 -7 7 14 -10 10 11 12 13 16 17 26 -18 -19 24 -21 21 -23 -24 -25 -26 -27 27 28 -30 -31
leaf_value=0.0086433170597017845 -0.051192633247626962 -0.051334445041749159 0.010630572598576617 -0.0071445542965148812 0.0049588485925214157 -0.046645055382627781 -0.054622529912620538 -0.052690654715138632 0.092500149336347051 0.049012971275203723 -0.04277290520293893 -0.054357983560255355 0.16266147887042298 -0.05119057068801644 0.12360674163097532 0.0055506192160261333 0.10935895978852535 0.14737738246525522 -0.053097621525068452 0.032532363030060601 0.049861751528656337 0.10137426908905806 -0.051907910090616953 -0.049014858403798656 0.031976562014814837 -0.0078213725272326586 0.0061858184609414873 -0.02934623629345471 0.00090583187072792158 -0.0030206464168001227
leaf_weight=74.260764490813017 4.3993364460766307 5.2925496101379386 8.5971443466842157 914.76642074808478 57.207658648490906 110.71617824584246 20.532928198575974 4.5312401913106433 33.009396001696587 34.930243253707886 32.616181500256062 6.5714465864002731 8.46809174120426 3.7765052691102019 12.79085088521242 854.91937550902367 3.2178927958011627 6.6499303504824629 7.7842343263328058 43.555745337158442 11.448440313339232 24.019080147147179 4.2213501892983905 106.18179741501808 3.2887204885482788 233.30707832053304 431.52501189336181 43.926620699465275 1870.9877346381545 431.78164023533463
leaf_count=919 75 97 93 11509 726 1837 291 64 223 191 430 75 48 59 103 10688 32 48 108 287 75 158 59 1963 32 2700 5385 626 23915 5419
internal_value=-0.00059743 0.0084554 -0.0250529 -0.00129399 -0.0136069 -0.0315236 0.0327989 0.0258924 0.0753769 -0.000347122 0.012046 -0.0115368 0.0370466 0.100119 0.0569991 -5.28569e-06 0.0224685 0.0723227 0.0641715 0.0232572 0.0835867 0.0702852 0.0219732 -0.0478397 -0.0273226 -0.00380157 0.00180573 0.000635625 -0.00038036 -0.00535515
internal_weight=5409.28 385.883 163.627 5023.4 475.492 167.924 222.256 184.847 37.4087 110.113 89.5804 54.6501 22.0339 15.4625 74.7338 4547.91 6.9944 70.2026 63.5527 48.8483 52.4797 39.6889 15.6698 114.779 11.073 307.568 3633.14 2778.22 2346.7 475.708
internal_count=68235 4511 2440 63724 6182 2563 2071 1773 298 1126 835 644 214 139 647 57542 91 583 535 384 395 292 134 2056 140 3619 46033 35345 29960 6045
cat_boundaries=0 1 7 8 9 15 16 19 25 28
cat_threshold=131187 536872961 1536 256 2147483673 1064978 2689 50 2 306471040 148480 2147680270 570433538 2184708225 4265 49664 2434269696 2186576256 66 554699264 2718433304 1090519937 135224 1073954866 3088 2820947972 306324256 643
is_linear=0
shrinkage=0.05


Tree=20
num_leaves=31
num_cat=9
split_feature=4 8 3 6 6 6 3 6 3 6 6 6 3 6 6 6 4 6 0 6 6 5 0 4 6 6 4 6 6 0
split_gain=9.85013 9.91511 88.5926 81.7077 29.8713 38.6973 29.4147 26.3085 50.6684 27.6917 23.5534 30.4761 28.8182 31.5203 26.3206 19.8534 19.1218 14.1332 12.9188 11.8355 35.7436 7.60636 7.46188 7.28976 6.2379 18.7893 5.79492 5.69385 5.62268 5.52363
threshold=0 1.0000000180025095e-35 1 2.5000000000000004 2.5000000000000004 1.5000000000000002 2 2.5000000000000004 3 1.5000000000000002 4.5000000000000009 5.5000000000000009 4 7.5000000000000009 8.5000000000000018 3.5000000000000004 5 1.5000000000000002 6.5000000000000009 13.000000000000002 8.5000000000000018 6 1.5000000000000002 7 6.5000000000000009 5.5000000000000009 8 13.000000000000002 4.5000000000000009 17.500000000000004
decision_type=9 2 9 2 2 2 9 2 9 2 2 2 9 2 2 2 9 2 2 2 2 9 2 9 2 2 9 2 2 2
left_child=-1 4 7 17 5 26 -7 9 10 -3 -9 -12 -13 -14 -15 -10 27 -4 -16 20 24 23 -11 -18 25 28 -2 -6 29 -17
right_child=1 2 3 -5 16 6 -8 8 15 22 11 12 13 14 18 19 21 -19 -20 -21 -22 -23 -24 -25 -26 -27 -28 -29 -30 -31
leaf_value=0.0061438473084463874 -0.0075944780178527939 -0.051058779011083369 -0.050928876920907251 -0.050943158199048856 -0.0068015218979744626 0.0017693833470326882 -0.048855937474058496 -0.054681622567411964 -0.051978853082344928 0.0072728069713265137 0.042090199020383481 -0.04220165997196218 -0.054066826943276691 0.14348805282810698 0.11410491147735119 0.1180463943759707 0.0066432335581150179 0.039970758753150426 -0.033876849594578783 0.11603029738212677 -0.034650971297610446 -0.003395527893571735 0.085854119381638838 0.00056315761592739785 0.084090524612874112 -0.051526076832611414 0.0088072404655450166 -0.029696739492374453 0.039913728113266003 0.051707588309456258
leaf_weight=443.5437152273953 231.47068757563829 4.5700130872428408 4.6501057408750048 97.854040149599314 830.9371835142374 46.911781411617994 98.261497225612402 20.193890508264303 4.2744593285024157 3.5127154961228362 33.80293907225132 30.740307852625847 6.596707176417115 7.2271809428930265 1.9506887681782243 7.2144464254379308 669.53640371188521 40.319600477814674 5.1116111055016518 7.7807865217328063 10.339646857231854 786.11194270849228 31.885959066450596 1829.0187112726271 26.273611299693584 3.8650499880313864 60.935775991529226 28.138504952192307 12.994529351592064 6.6331154927611351
leaf_count=5700 2656 83 89 1872 10539 596 1710 289 64 23 184 412 79 37 20 54 8289 252 70 51 138 10019 204 23211 162 56 787 346 83 49
internal_value=-0.00091193 -0.00155467 0.00633621 -0.0236484 -0.00219276 -0.0146162 -0.0357136 0.0253223 0.0184414 0.0632403 -0.00569908 0.00520507 -0.0188838 0.0239376 0.0770565 0.0455767 -0.000879322 0.0303682 0.00732177 0.057318 0.0502959 0.000864139 0.0782396 0.00221461 0.0658316 0.0498243 -0.00411606 -0.00747364 0.0647407 0.0872265
internal_weight=5392.66 4949.11 367.791 142.824 4581.32 437.58 145.173 224.968 184.999 39.9687 105.623 85.4294 51.6265 20.8862 14.2895 79.3756 4143.74 44.9697 7.0623 75.1012 67.3204 3284.67 35.3987 2498.56 56.9808 30.7071 292.406 859.076 26.8421 13.8476
internal_count=68124 62424 4271 2213 58153 5749 2306 2058 1748 310 1091 802 618 206 127 657 52404 341 90 593 542 41519 227 31500 404 242 3443 10885 186 103
cat_boundaries=0 6 7 8 9 10 16 19 25 31
cat_threshold=67141632 2147533824 2701394330 18874632 1081278753 5504 131187 223232 50 2 423895684 526848 1082163264 100667394 2617778368 43 3020075680 2231375720 2284 537395216 587202560 8224 2147615749 50598418 2048 37748753 131104 0 67108928 276824194 33
is_linear=0
shrinkage=0.05


Tree=21
num_leaves=31
num_cat=8
split_feature=9 3 9 6 6 3 9 9 9 9 3 9 3 4 9 6 9 4 4 9 6 6 6 9 9 9 9 6 6 3
split_gain=110.732 336.241 279.163 212.602 109.773 125.191 222.073 137.148 191.447 155.278 144.464 109.109 88.2091 70.1035 92.695 68.436 63.522 174.159 132.297 117.571 82.6391 80.8903 169.864 75.4471 202.243 72.9585 309.191 415.812 256.071 89.6488
threshold=29.500000000000004 0 31.500000000000004 10.500000000000002 10.500000000000002 1 35.500000000000007 37.500000000000007 49.500000000000007 48.500000000000007 2 30.500000000000004 3 4 34.500000000000007 11.500000000000002 58.500000000000007 5 6 41.500000000000007 4.5000000000000009 7.5000000000000009 8.5000000000000018 45.500000000000007 46.500000000000007 52.500000000000007 51.500000000000007 4.5000000000000009 3.5000000000000004 7
decision_type=2 9 2 2 2 9 2 2 2 2 9 2 9 9 2 2 2 9 9 2 2 2 2 2 2 2 2 2 2 9
left_child=1 -1 3 12 16 6 13 -7 9 10 -9 -5 -2 -6 -15 -11 18 -18 19 -4 -21 -22 23 -23 -25 26 -20 28 -28 -27
right_child=2 -3 4 11 5 7 -8 8 -10 15 -12 -13 -14 14 -16 -17 17 -19 25 20 21 22 -24 24 -26 29 27 -29 -30 -31
leaf_value=-0.049316440312574386 0.035843667663838584 0.010242553178573111 0.03864553543980756 -0.052407953992347669 -0.020022405118548057 -0.0549972761617218 -0.05320163559772826 -0.029789293973688982 -0.014175425528886239 0.21539626231669279 0.081936978018490106 0.08244526677187973 -0.046561496682170252 0.029159141429775454 0.16657433918463582 -0.052941536025615403 -0.029299419166974705 0.021211887143856772 -0.010405588062080933 0.032663757513652684 -0.051335849651473059 -0.053845635994890374 -0.042695227282411125 0.37640515397320429 0.060708447191097192 0.022823940954488097 -0.05273912495311648 -0.054203052118764194 0.30125751104057863 -0.044681394536818755
leaf_weight=417.00955745205283 49.830914922058582 529.57606653124094 315.73910199850798 16.00890051946044 42.117628771811724 77.903283644467592 363.88185926154256 44.509804487228394 179.63502494618297 20.077010914683346 62.079952605068684 215.45669668912888 62.128328897058964 41.287537422031164 17.473401997238398 2.6207552626729003 198.96104290708899 953.7138312831521 1115.5658743306994 99.268644541501999 112.89036034420133 6.8883697912096968 57.182386413216591 6.3776067271828678 23.933321926742792 57.705153726041317 6.3526504114270237 21.858806692063808 24.979854710400105 242.59025567024946
leaf_count=8430 471 5884 2918 300 582 943 6675 582 2271 150 660 889 993 447 219 25 2906 9660 14650 1089 1323 79 689 71 277 650 88 291 227 3685
internal_value=-0.000880016 -0.0164055 0.00242984 0.0457244 -0.00120031 -0.0171768 -0.0342645 0.0041233 0.0191948 0.0655738 0.040139 0.0730782 -0.0107971 0.0305865 0.0601081 0.184098 0.00299253 0.0124169 -0.00219986 0.0169618 -0.0048084 -0.0227861 0.0113276 0.0943969 0.128317 -0.0103655 -0.00478177 0.112869 0.229386 -0.0324172
internal_weight=5385.6 946.586 4439.02 343.425 4095.59 851.586 464.76 386.826 308.923 129.288 106.59 231.466 111.959 100.879 58.7609 22.6978 3244.01 1152.67 2091.33 622.28 306.541 207.272 94.3817 37.1993 30.3109 1469.05 1168.76 53.1913 31.3325 300.295
internal_count=68124 14314 53810 2653 51157 12554 7923 4631 3688 1417 1242 1189 1464 1248 666 175 38603 12566 26037 6446 3528 2439 1116 427 348 19591 15256 606 315 4335
cat_boundaries=0 1 2 3 4 9 15 21 22
cat_threshold=7170 66561 242 131138 1 16 262144 2360328 1026 41975936 37897216 8248 21 6050560 2336 76054528 37897216 536879160 134217749 7410464 3328 131152
is_linear=0
shrinkage=0.05


Tree=22
num_leaves=31
num_cat=10
split_feature=9 3 9 6 6 3 9 9 9 9 3 3 8 9 4 6 3 9 9 6 4 9 6 9 4 4 9 3 6 9
split_gain=101.359 319.815 252.295 189.924 100.725 118.127 210.353 127.442 164.789 114.321 124.89 100.418 88.0634 63.0329 60.5798 89.45 59.933 70.6215 190.054 187.455 59.1259 72.6713 58.3764 57.202 155.995 122.29 106.399 68.9593 73.6018 66.2709
threshold=29.500000000000004 0 31.500000000000004 10.500000000000002 10.500000000000002 1 35.500000000000007 37.500000000000007 49.500000000000007 48.500000000000007 2 3 1.0000000180025095e-35 30.500000000000004 4 2.5000000000000004 5 67.500000000000014 68.500000000000014 11.500000000000002 6 34.500000000000007 11.500000000000002 58.500000000000007 7 8 53.500000000000007 9 3.5000000000000004 51.500000000000007
decision_type=2 9 2 2 2 9 2 2 2 2 9 9 2 2 9 2 9 2 2 2 9 2 2 2 9 9 2 9 2 2
left_child=1 -1 3 12 23 6 20 -7 9 10 -9 13 -2 -5 15 -3 -10 -18 19 -19 -6 22 -22 25 -25 -4 29 28 -28 -27
right_child=2 14 4 11 5 7 -8 8 16 -11 -12 -13 -14 -15 -16 -17 17 18 -20 -21 21 -23 -24 24 -26 26 27 -29 -30 -31
leaf_value=-0.049031653145907989 -0.036132528547098468 -0.03815844196840356 -0.017257019049756323 -0.051650871668063626 -0.018334889362475307 -0.054718118518617333 -0.053034518580587345 -0.0291728831996939 0.037086542791496722 0.15463310668190008 0.074111321299099517 -0.018474796249912964 0.067098966773355403 0.08970198344050502 -0.0084765203047603554 0.037868219211893116 -0.046344778667318128 -0.051652155969100645 -0.053969279198434639 0.42494746014294016 -0.052853381396665546 0.14308133164561454 0.070235457470411669 -0.021416520014176182 0.021599151661392497 0.0093932258425464404 0.11318007441830452 -0.049792529865679364 -0.013895361107137528 0.052285443257752612
leaf_weight=398.97514257580042 83.101713810116053 45.883109048008919 807.39576437324286 8.1160860657691938 42.520461339503527 74.472887080162764 347.19858931005001 43.419106874614954 37.582833584398031 25.583992704749107 66.15799942612648 31.820005737245083 27.367601983249187 192.54040111601353 245.50736641138792 242.4953234270215 115.42089216783643 3.3531274348497409 16.076615184545517 5.1137249357998371 14.920254677534102 19.458262275904417 26.655814535915852 267.12750770151615 893.89661284908652 1006.6443154476583 14.946304351091383 111.60782725736499 46.704517208039761 98.89966631680727
leaf_count=8430 1339 500 11730 157 594 943 6675 582 451 175 660 260 125 772 2907 2477 1500 43 211 66 259 213 182 3865 8701 10865 156 1602 564 1120
internal_value=-0.000881879 -0.0158606 0.00227281 0.0434582 -0.00118442 -0.0166398 -0.0336329 0.00390187 0.0180162 0.0596023 0.0372482 0.0691015 -0.0104752 0.0799542 0.00966082 0.0248829 -0.0136295 -0.0279522 0.0468342 0.237216 0.0281122 0.0545975 0.0259222 0.00280262 0.0116984 -0.00214604 0.00746779 -0.0288856 0.0146002 0.0132392
internal_weight=5360.96 932.861 4428.1 342.946 4085.16 837.935 450.753 387.181 312.708 135.161 109.577 232.476 110.469 200.656 533.886 288.378 177.547 139.964 24.5435 8.46685 103.555 61.0343 41.5761 3247.22 1161.02 2086.2 1278.8 173.259 61.6508 1105.54
internal_count=68124 14314 53810 2653 51157 12554 7923 4631 3688 1417 1242 1189 1464 929 5884 2977 2271 1820 320 109 1248 654 441 38603 12566 26037 14307 2322 720 11985
cat_boundaries=0 1 2 3 4 10 11 16 22 28 29
cat_threshold=7170 66561 242 1024 41943041 512 268435456 2751463432 134496386 2 131284 1 16 262144 2393096 1026 41975936 37897216 184 2147483669 6050592 2337 671088641 2164359176 285442050 2154061320 1107558418 35 150096
is_linear=0
shrinkage=0.05


Tree=23
num_leaves=31
num_cat=8
split_feature=9 4 9 6 9 4 9 6 6 6 4 9 4 6 9 6 4 8 9 6 6 4 9 9 9 6 6 4 9 4
split_gain=93.267 170.493 97.9471 264.857 125.523 107.924 229.169 165.829 264.844 92.6852 107.86 112.973 89.1893 79.1969 116.912 192.114 85.6662 75.102 66.7191 58.9107 56.2914 65.1656 52.6615 124.851 59.6913 146.59 90.1574 54.285 51.418 142.815
threshold=27.500000000000004 0 31.500000000000004 10.500000000000002 30.500000000000004 1 28.500000000000004 5.5000000000000009 6.5000000000000009 10.500000000000002 2 35.500000000000007 3 7.5000000000000009 18.500000000000004 8.5000000000000018 4 1.0000000180025095e-35 28.500000000000004 4.5000000000000009 11.500000000000002 5 37.500000000000007 49.500000000000007 44.500000000000007 11.500000000000002 11.500000000000002 6 58.500000000000007 7
decision_type=2 9 2 2 2 9 2 2 2 2 9 2 9 2 2 2 9 2 2 2 2 9 2 2 2 2 2 9 2 9
left_child=1 13 3 5 12 6 7 -2 -9 28 11 20 18 16 15 -15 -1 -7 -5 -18 -11 -22 -12 24 26 -26 -24 -25 -4 -30
right_child=2 -3 9 4 -6 17 -8 8 -10 10 22 -13 -14 14 -16 -17 19 -19 -20 -21 21 -23 23 27 25 -27 -28 -29 29 -31
leaf_value=-0.034782241172948418 -0.054383347127937701 -0.038454701474174791 -0.0020689234115849418 -0.053517321848298965 0.073738089413608793 -0.042131640401961039 -0.031088495800153656 0.31997358143108295 -0.054749606732091775 -0.02640685957519498 -0.033468544226508655 -0.045377988539373859 -0.033634194643214606 0.32159225371071298 0.025215458782192637 -0.054096659712371924 0.097780521599252268 0.036485824068888256 0.15714177224478307 -0.023452893417480095 -0.035803429934935668 0.071834995109858232 -0.039159013216918892 0.030494723928996454 0.12025017273547074 -0.05516886393726611 0.085943748042912507 -0.031303547220304664 -0.028602927367071287 0.018513910663413704
leaf_weight=102.49668967723846 7.5924801453948048 399.61725681461394 2082.1337831914425 4.894599478691819 217.39523042738438 193.96292877569795 43.492646053433418 16.499144650995735 6.5199453160166732 46.455744314938784 71.57653458788991 363.26830605976284 55.392902869731188 8.7589531987905485 104.48392784968019 5.4507819078862658 26.871727015823126 35.867623766884208 15.108936816453932 15.801119245588778 15.56868579238653 40.019132897257805 33.902179189026356 41.225391529500484 54.768972683697939 15.103244129568337 24.86010904610157 117.29571785032749 183.19523850828409 985.29273467883468
leaf_count=1066 85 7537 26037 60 889 3256 560 162 66 835 900 6998 1056 85 1127 61 302 279 182 194 138 277 390 491 481 171 279 1594 2807 9759
internal_value=-0.000876621 -0.0184178 0.00161404 0.0205318 0.0544657 -0.0121486 0.0375311 0.147192 0.213843 -0.00115564 -0.0161329 -0.03164 -0.0010615 0.0128807 0.043654 0.17776 -0.0113718 -0.0285869 0.0703459 0.0428133 0.0141163 0.0480586 0.00472095 0.0144302 0.0510192 0.0822363 0.0137384 -0.0152425 0.00263997 0.0110345
internal_weight=5334.87 663.48 4671.39 596.726 292.792 303.935 74.1042 30.6116 23.0191 4074.67 824.044 465.312 75.3964 263.863 118.694 14.2097 145.17 229.831 20.0035 42.6728 102.044 55.5878 358.732 287.156 128.635 69.8722 58.7623 158.521 3250.62 1168.49
internal_count=68124 10372 57752 6595 2187 4408 873 313 228 51157 12554 8248 1298 2835 1273 146 1562 3535 242 496 1250 415 4306 3406 1321 652 669 2085 38603 12566
cat_boundaries=0 6 11 17 22 28 33 39 45
cat_threshold=583008257 624128 268435970 2214592520 2282635794 163 1 536870912 0 2147483648 1191444482 4472833 16 2198110209 757390345 67110018 256 1 0 0 8 41943170 1 0 0 2147483656 2 1 1 0 0 0 130 805306368 537067528 8 256 1495007232 33 41975808 37880832 56 21 5526272 2336
is_linear=0
shrinkage=0.05


Tree=24
num_leaves=31
num_cat=6
split_feature=9 4 9 6 6 4 9 6 9 6 4 8 9 9 6 6 9 9 6 6 4 9 9 9 4 9 6 9 4 9
split_gain=86.7556 221.176 209.084 148.843 85.1706 106.223 97.7505 100.829 82.8768 81.6752 82.0789 75.2396 62.4681 98.7082 84.3258 198.678 81.9259 86.1612 72.7146 102.936 62.7339 97.1425 54.7667 142.389 78.6301 103.939 81.2684 62.2887 55.5966 53.8802
threshold=29.500000000000004 0 31.500000000000004 10.500000000000002 10.500000000000002 1 35.500000000000007 11.500000000000002 30.500000000000004 4.5000000000000009 2 1.0000000180025095e-35 26.500000000000004 18.500000000000004 11.500000000000002 6.5000000000000009 28.500000000000004 27.500000000000004 8.5000000000000018 7.5000000000000009 3 22.500000000000004 49.500000000000007 48.500000000000007 4 44.500000000000007 11.500000000000002 46.500000000000007 5 67.500000000000014
decision_type=2 9 2 2 2 9 2 2 2 2 9 2 2 2 2 2 2 2 2 2 9 2 2 2 9 2 2 2 9 2
left_child=1 9 3 11 -4 6 7 -6 -5 10 -1 -2 13 18 15 16 17 -14 19 -11 21 -15 23 24 25 -7 27 -27 -24 -30
right_child=2 -3 4 8 5 22 -8 -9 -10 12 -12 -13 14 20 -16 -17 -18 -19 -20 -21 -22 -23 28 -25 -26 26 -28 -29 29 -31
leaf_value=-0.045898344650623459 -0.034658411890468206 -0.031728252959826626 0.0025005125665877805 -0.052110453234414524 -0.052583032676977275 0.0015093719486542318 -0.051226778892661563 0.057332012172802198 0.069940174183880585 -0.053325381472640924 0.054000036075639968 0.060982563865006938 -0.0029070744021639245 -0.038539221638942273 0.16865439719712702 -0.037880226968261412 -0.0047787354536128132 0.21393308439951453 -0.053514553028361868 0.25206856087194318 -0.02731350140296885 0.15456672493654311 0.024706249442945364 0.11734607124481639 -0.023089178611049463 0.20821332351990993 -0.054433016457025918 0.047828525099493181 -0.049647182547098018 0.027240680886852893
leaf_weight=63.024810075759888 77.76736207306385 614.17987910285592 3254.558187622577 14.739554863423107 36.400122661143541 66.532424200326204 271.01024380885065 48.566004104912281 217.73431241512299 3.6348963193595418 19.859125692397356 27.825652845203876 5.713260684162381 11.44793885946274 17.185533571988344 35.967581242322922 8.8366335406899434 22.078740309923887 4.5373375341296187 10.667090088129044 76.835542254149914 14.806748025119303 50.048292092978954 30.473591051995754 126.62390709295869 16.403884693980217 5.9577768072485915 9.8228848427534121 121.10701773688197 27.901670347899199
leaf_count=694 1339 11347 38603 300 726 727 5939 329 889 38 205 125 58 109 164 376 89 176 50 82 785 141 629 191 1656 134 63 83 1713 364
internal_value=-0.000871407 -0.0149365 0.00203044 0.0398067 -0.00111059 -0.0156094 -0.0355589 0.0101783 0.0621612 0.0204366 -0.0208898 -0.00937414 0.0376063 0.014228 0.0692487 0.0454482 0.127289 0.169327 0.119155 0.174273 -0.00499539 0.0509986 0.000760993 0.0160898 0.00232838 0.0338803 0.110926 0.148743 -0.0188734 -0.0329951
internal_weight=5312.25 908.775 4403.47 338.067 4065.41 810.848 355.976 84.9661 232.474 294.595 82.8839 105.593 211.711 121.93 89.7817 72.5962 36.6286 27.792 18.8393 14.302 103.09 26.2547 454.871 255.814 225.341 98.717 32.1845 26.2268 199.057 149.009
internal_count=68124 14314 53810 2653 51157 12554 6994 1055 1189 2967 899 1464 2068 1205 863 699 323 234 170 120 1035 250 5560 2854 2663 1007 280 217 2706 2077
cat_boundaries=0 6 11 16 20 26 32
cat_threshold=587202561 98816 268435970 2818572298 3456516115 42 1 16 17072129 69520392 67109890 1 0 2 2147483656 100663298 0 0 0 2147483648 608174080 33563648 16 2148540433 1053216 2049 805306368 537067528 8 256 1503395840 33
is_linear=0
shrinkage=0.05


Tree=25
num_leaves=31
num_cat=0
split_feature=9 9 6 6 9 9 9 9 9 6 6 6 9 6 9 9 9 9 9 6 9 9 6 6 6 7 9 9 6 9
split_gain=97.4364 80.644 104.876 65.7529 91.3916 119.417 71.8642 85.6533 359.372 481.623 223.353 111.204 102.607 363.13 194.782 104.79 253.498 67.5134 458.853 235.76 65.0047 75.448 162.263 159.487 68.7557 63.8041 138.316 102.122 68.7267 104.609
threshold=27.500000000000004 34.500000000000007 2.5000000000000004 10.500000000000002 49.500000000000007 48.500000000000007 58.500000000000007 52.500000000000007 51.500000000000007 4.5000000000000009 3.5000000000000004 7.5000000000000009 45.500000000000007 8.5000000000000018 49.500000000000007 48.500000000000007 46.500000000000007 39.500000000000007 38.500000000000007 9.5000000000000018 60.500000000000007 65.500000000000014 7.5000000000000009 8.5000000000000018 9.5000000000000018 4.5000000000000009 41.500000000000007 41.500000000000007 4.5000000000000009 36.500000000000007
decision_type=2 2 2 2 2 2 2 2 2 2 2 2 2 2 2 2 2 2 2 2 2 2 2 2 2 2 2 2 2 2
left_child=-1 2 -2 6 5 -5 7 8 11 10 -10 25 17 14 15 16 -14 18 -13 -20 -8 23 -23 -22 -25 26 -3 28 -27 -30
right_child=1 3 -4 4 -6 -7 20 -9 9 -11 -12 12 13 -15 -16 -17 -18 -19 19 -21 21 22 -24 24 -26 27 -28 -29 29 -31
leaf_value=-0.018761528779626797 -0.041785948630315026 -0.055050961643554198 0.018132671720392381 -0.0073686545671704587 -0.032866488926721608 0.085842207124404088 0.031513765334531471 -0.025299308583501691 -0.053319350392284942 -0.054486105585513506 0.23933450768815023 -0.0087579986509052632 0.20945514761337308 -0.036396974960915499 -0.053640252676793454 0.24166519380701659 -0.053883078803715123 -0.033189105080374613 -0.051875777944775617 0.41745439185436956 -0.032498197636563114 0.032080553303288774 -0.044007512601455682 0.059397925970901912 -0.016225245077098494 -0.029908664901023105 0.055612194745414227 -0.039770321549373058 -0.028819161837823005 0.048173942561149735
leaf_weight=645.75962172262371 78.541443893685937 43.380703009665012 1016.6535898409784 305.36845129169524 362.31928135827184 38.612464286386967 294.2886518985033 395.17126562818885 7.5879721418023101 30.513207159936428 43.768485866487026 137.08348697051406 23.716817051172256 64.744633320719004 12.644039209932087 24.507764853537083 14.732112161815165 106.4040762335062 3.5809642150998089 10.053545769304037 281.49661546945572 382.41968730837107 85.644023928791285 88.532855309545994 45.28954990953207 122.88209888711572 80.343079287558794 374.6912753470242 71.941514223814011 113.54924368485808
leaf_count=10416 1103 579 10798 4694 6455 308 2463 5650 102 399 316 1774 208 924 173 197 196 1496 47 117 4149 3408 1258 683 564 1589 953 4868 960 1471
internal_value=-0.000560452 0.00196079 0.0138276 -0.00168341 -0.0153442 0.0031018 0.00169013 -0.00494228 0.00131016 0.102615 0.195978 -0.00558072 0.0160574 0.0504285 0.124802 0.160747 0.108547 -0.00269626 0.0188057 0.294345 0.0111627 0.00437454 0.0181412 -0.0111291 0.0337744 -0.0162477 0.0167574 -0.0222348 -0.000905993 0.0182862
internal_weight=5306.22 4660.46 1095.2 3565.27 706.3 343.981 2858.97 1681.3 1286.13 81.8697 51.3565 1204.26 397.467 140.345 75.6007 62.9567 38.4489 257.122 150.718 13.6345 1177.67 883.383 468.064 415.319 133.822 806.788 123.724 683.064 308.373 185.491
internal_count=68318 57902 11901 46001 11457 5002 34544 22019 16369 817 418 15552 5132 1698 774 601 404 3434 1938 164 12525 10062 4666 5396 1247 10420 1532 8888 4020 2431
is_linear=0
shrinkage=0.05


Tree=26
num_leaves=31
num_cat=6
split_feature=9 3 9 6 3 3 6 6 9 6 9 4 6 9 9 9 6 6 6 7 6 7 9 7 6 9 3 4 9 9
split_gain=88.9129 198.522 72.8224 183.324 123.826 111.078 105.837 176.104 115.922 83.7847 83.5813 79.3075 80.6583 97.3959 118.582 73.227 59.2445 52.4906 48.1117 42.6041 48.7427 41.9616 80.1069 114.852 49.0193 94.471 65.4061 39.4329 52.5785 36.1774
threshold=27.500000000000004 0 31.500000000000004 10.500000000000002 1 2 6.5000000000000009 4.5000000000000009 28.500000000000004 5.5000000000000009 28.500000000000004 3 10.500000000000002 58.500000000000007 32.500000000000007 59.500000000000007 5.5000000000000009 13.000000000000002 4.5000000000000009 23.500000000000004 3.5000000000000004 14.500000000000002 19.500000000000004 6.5000000000000009 11.500000000000002 25.500000000000004 4 5 29.500000000000004 20.500000000000004
decision_type=2 9 2 2 9 9 2 2 2 2 2 9 2 2 2 2 2 2 2 2 2 2 2 2 2 2 9 9 2 2
left_child=1 -1 3 4 6 10 7 27 16 -10 -5 12 13 14 18 19 -9 -7 -4 20 -15 22 23 -3 26 -26 -24 28 -2 -28
right_child=2 21 11 5 -6 17 -8 8 9 -11 -12 -13 -14 15 -16 -17 -18 -19 -20 -21 -22 -23 24 -25 25 -27 29 -29 -30 -31
leaf_value=-0.044869080508036431 0 -0.034691315970769902 0.17693150025782045 -0.053281473534565631 -0.049058324228541589 -0.06212003646471851 -0.041750230896485524 -0.051370987720505058 0.084761986162044972 -0.05391177701226977 0.067840914943764596 0.0033150328784545945 -0.036970715665497388 0.069987189269164224 -0.026872942649237938 0.00042949318936930212 0.18637503468594152 0.061075694802086536 -0.051479163612133533 0.085359181235233741 -0.033012214914577516 -0.0067553439483558925 0.037095017620273708 0.17224249328259578 -0.054510179024567965 0.19950691186638489 0.071375164038986721 -0.041068567923509131 0.25942679134236835 -0.055727685282666278
leaf_weight=322.33687113970518 4.5992282927036285 9.9903635345399397 10.150796510279177 15.0517500936985 109.49802589416504 33.93489983305335 56.107652369886637 2.8162236884236362 33.663402408361435 15.952352505177258 232.91358191147447 3099.8544269856066 260.13159866444767 22.653796322643757 364.26142631843686 225.25524210929871 27.651214867830276 11.46562880091369 2.8847428932785979 48.777281254529953 23.038913406431675 162.65312958881259 50.534848853945732 19.893596701323986 6.0860328376293173 8.8609644100069982 6.1976178511977187 49.134516835212708 3.2470876574516296 49.134086981415749
leaf_count=7032 54 113 69 271 2026 424 838 44 226 235 1418 37270 5218 112 5653 2480 215 91 37 208 198 1787 551 188 63 83 68 765 50 531
